digraph Tree {
node [shape=box] ;
0 [label="X[3] <= 1249.695\nentropy = 0.309\nsamples = 85592\nvalue = [80857, 4735]"] ;
1 [label="X[9] <= 1.5\nentropy = 0.308\nsamples = 85345\nvalue = [80643, 4702]"] ;
0 -> 1 [labeldistance=2.5, labelangle=45, headlabel="True"] ;
2 [label="X[2] <= 13.34\nentropy = 0.278\nsamples = 71474\nvalue = [68041, 3433]"] ;
1 -> 2 ;
3 [label="X[0] <= 11887.5\nentropy = 0.166\nsamples = 41874\nvalue = [40845, 1029]"] ;
2 -> 3 ;
4 [label="X[20] <= 0.5\nentropy = 0.195\nsamples = 18874\nvalue = [18307, 567]"] ;
3 -> 4 ;
5 [label="entropy = 0.213\nsamples = 12640\nvalue = [12212, 428]"] ;
4 -> 5 ;
6 [label="entropy = 0.154\nsamples = 6234\nvalue = [6095, 139]"] ;
4 -> 6 ;
7 [label="X[21] <= 0.5\nentropy = 0.142\nsamples = 23000\nvalue = [22538, 462]"] ;
3 -> 7 ;
8 [label="entropy = 0.121\nsamples = 16380\nvalue = [16110, 270]"] ;
7 -> 8 ;
9 [label="entropy = 0.189\nsamples = 6620\nvalue = [6428, 192]"] ;
7 -> 9 ;
10 [label="X[9] <= 0.5\nentropy = 0.406\nsamples = 29600\nvalue = [27196, 2404]"] ;
2 -> 10 ;
11 [label="X[27] <= 0.5\nentropy = 0.382\nsamples = 17940\nvalue = [16608, 1332]"] ;
10 -> 11 ;
12 [label="entropy = 0.343\nsamples = 9982\nvalue = [9343, 639]"] ;
11 -> 12 ;
13 [label="entropy = 0.427\nsamples = 7958\nvalue = [7265, 693]"] ;
11 -> 13 ;
14 [label="X[18] <= 139109.0\nentropy = 0.443\nsamples = 11660\nvalue = [10588, 1072]"] ;
10 -> 14 ;
15 [label="entropy = 0.478\nsamples = 7958\nvalue = [7140, 818]"] ;
14 -> 15 ;
16 [label="entropy = 0.361\nsamples = 3702\nvalue = [3448, 254]"] ;
14 -> 16 ;
17 [label="X[9] <= 2.5\nentropy = 0.441\nsamples = 13871\nvalue = [12602, 1269]"] ;
1 -> 17 ;
18 [label="X[10] <= 15.5\nentropy = 0.41\nsamples = 8887\nvalue = [8155, 732]"] ;
17 -> 18 ;
19 [label="X[6] <= 95077.0\nentropy = 0.435\nsamples = 6738\nvalue = [6134, 604]"] ;
18 -> 19 ;
20 [label="entropy = 0.467\nsamples = 5450\nvalue = [4909, 541]"] ;
19 -> 20 ;
21 [label="entropy = 0.282\nsamples = 1288\nvalue = [1225, 63]"] ;
19 -> 21 ;
22 [label="X[4] <= 3.5\nentropy = 0.326\nsamples = 2149\nvalue = [2021, 128]"] ;
18 -> 22 ;
23 [label="entropy = 0.251\nsamples = 1384\nvalue = [1326, 58]"] ;
22 -> 23 ;
24 [label="entropy = 0.441\nsamples = 765\nvalue = [695, 70]"] ;
22 -> 24 ;
25 [label="X[4] <= 3.5\nentropy = 0.493\nsamples = 4984\nvalue = [4447, 537]"] ;
17 -> 25 ;
26 [label="X[0] <= 33562.5\nentropy = 0.409\nsamples = 2749\nvalue = [2524, 225]"] ;
25 -> 26 ;
27 [label="entropy = 0.414\nsamples = 2682\nvalue = [2458, 224]"] ;
26 -> 27 ;
28 [label="entropy = 0.112\nsamples = 67\nvalue = [66, 1]"] ;
26 -> 28 ;
29 [label="X[13] <= 83.35\nentropy = 0.583\nsamples = 2235\nvalue = [1923, 312]"] ;
25 -> 29 ;
30 [label="entropy = 0.545\nsamples = 1966\nvalue = [1719, 247]"] ;
29 -> 30 ;
31 [label="entropy = 0.798\nsamples = 269\nvalue = [204, 65]"] ;
29 -> 31 ;
32 [label="X[4] <= 4.5\nentropy = 0.567\nsamples = 247\nvalue = [214, 33]"] ;
0 -> 32 [labeldistance=2.5, labelangle=-45, headlabel="False"] ;
33 [label="X[9] <= 2.5\nentropy = 0.496\nsamples = 138\nvalue = [123, 15]"] ;
32 -> 33 ;
34 [label="X[6] <= 540000.0\nentropy = 0.414\nsamples = 120\nvalue = [110, 10]"] ;
33 -> 34 ;
35 [label="X[5] <= 7.5\nentropy = 0.387\nsamples = 119\nvalue = [110, 9]"] ;
34 -> 35 ;
36 [label="entropy = 0.126\nsamples = 58\nvalue = [57, 1]"] ;
35 -> 36 ;
37 [label="entropy = 0.561\nsamples = 61\nvalue = [53, 8]"] ;
35 -> 37 ;
38 [label="entropy = 0.0\nsamples = 1\nvalue = [0, 1]"] ;
34 -> 38 ;
39 [label="X[2] <= 17.815\nentropy = 0.852\nsamples = 18\nvalue = [13, 5]"] ;
33 -> 39 ;
40 [label="X[27] <= 0.5\nentropy = 0.954\nsamples = 8\nvalue = [3, 5]"] ;
39 -> 40 ;
41 [label="entropy = 0.971\nsamples = 5\nvalue = [3, 2]"] ;
40 -> 41 ;
42 [label="entropy = 0.0\nsamples = 3\nvalue = [0, 3]"] ;
40 -> 42 ;
43 [label="entropy = 0.0\nsamples = 10\nvalue = [10, 0]"] ;
39 -> 43 ;
44 [label="X[0] <= 34937.5\nentropy = 0.646\nsamples = 109\nvalue = [91, 18]"] ;
32 -> 44 ;
45 [label="X[13] <= 35.0\nentropy = 0.831\nsamples = 19\nvalue = [14, 5]"] ;
44 -> 45 ;
46 [label="X[21] <= 0.5\nentropy = 0.971\nsamples = 5\nvalue = [2, 3]"] ;
45 -> 46 ;
47 [label="entropy = 0.918\nsamples = 3\nvalue = [2, 1]"] ;
46 -> 47 ;
48 [label="entropy = 0.0\nsamples = 2\nvalue = [0, 2]"] ;
46 -> 48 ;
49 [label="X[2] <= 23.765\nentropy = 0.592\nsamples = 14\nvalue = [12, 2]"] ;
45 -> 49 ;
50 [label="entropy = 0.0\nsamples = 10\nvalue = [10, 0]"] ;
49 -> 50 ;
51 [label="entropy = 1.0\nsamples = 4\nvalue = [2, 2]"] ;
49 -> 51 ;
52 [label="X[14] <= 34.5\nentropy = 0.596\nsamples = 90\nvalue = [77, 13]"] ;
44 -> 52 ;
53 [label="X[15] <= 0.5\nentropy = 0.701\nsamples = 58\nvalue = [47, 11]"] ;
52 -> 53 ;
54 [label="entropy = 0.677\nsamples = 56\nvalue = [46, 10]"] ;
53 -> 54 ;
55 [label="entropy = 1.0\nsamples = 2\nvalue = [1, 1]"] ;
53 -> 55 ;
56 [label="X[6] <= 131000.0\nentropy = 0.337\nsamples = 32\nvalue = [30, 2]"] ;
52 -> 56 ;
57 [label="entropy = 0.0\nsamples = 16\nvalue = [16, 0]"] ;
56 -> 57 ;
58 [label="entropy = 0.544\nsamples = 16\nvalue = [14, 2]"] ;
56 -> 58 ;
}