digraph Tree {
node [shape=box] ;
0 [label="X[2] <= 12.71\ngini = 0.5\nsamples = 25860\nvalue = [12891, 12969]"] ;
1 [label="X[13] <= 88328.0\ngini = 0.421\nsamples = 9306\nvalue = [6500, 2806]"] ;
0 -> 1 [labeldistance=2.5, labelangle=45, headlabel="True"] ;
2 [label="X[13] <= 80490.5\ngini = 0.465\nsamples = 5355\nvalue = [3382, 1973]"] ;
1 -> 2 ;
3 [label="X[3] <= 571.77\ngini = 0.357\nsamples = 3632\nvalue = [2786, 846]"] ;
2 -> 3 ;
4 [label="X[2] <= 11.54\ngini = 0.304\nsamples = 2880\nvalue = [2341, 539]"] ;
3 -> 4 ;
5 [label="X[6] <= 60200.0\ngini = 0.228\nsamples = 1999\nvalue = [1737, 262]"] ;
4 -> 5 ;
6 [label="X[13] <= 30271.5\ngini = 0.288\nsamples = 1288\nvalue = [1063, 225]"] ;
5 -> 6 ;
7 [label="X[13] <= 1257.0\ngini = 0.108\nsamples = 731\nvalue = [689, 42]"] ;
6 -> 7 ;
8 [label="X[7] <= 10.0\ngini = 0.434\nsamples = 22\nvalue = [7, 15]"] ;
7 -> 8 ;
9 [label="gini = 0.0\nsamples = 7\nvalue = [7, 0]"] ;
8 -> 9 ;
10 [label="gini = 0.0\nsamples = 15\nvalue = [0, 15]"] ;
8 -> 10 ;
11 [label="X[6] <= 21120.0\ngini = 0.073\nsamples = 709\nvalue = [682, 27]"] ;
7 -> 11 ;
12 [label="X[6] <= 20700.0\ngini = 0.42\nsamples = 50\nvalue = [35, 15]"] ;
11 -> 12 ;
13 [label="gini = 0.0\nsamples = 32\nvalue = [32, 0]"] ;
12 -> 13 ;
14 [label="X[5] <= 2.5\ngini = 0.278\nsamples = 18\nvalue = [3, 15]"] ;
12 -> 14 ;
15 [label="gini = 0.0\nsamples = 15\nvalue = [0, 15]"] ;
14 -> 15 ;
16 [label="gini = 0.0\nsamples = 3\nvalue = [3, 0]"] ;
14 -> 16 ;
17 [label="X[0] <= 4050.0\ngini = 0.036\nsamples = 659\nvalue = [647, 12]"] ;
11 -> 17 ;
18 [label="X[7] <= 13.5\ngini = 0.272\nsamples = 74\nvalue = [62, 12]"] ;
17 -> 18 ;
19 [label="gini = 0.0\nsamples = 59\nvalue = [59, 0]"] ;
18 -> 19 ;
20 [label="X[3] <= 121.565\ngini = 0.32\nsamples = 15\nvalue = [3, 12]"] ;
18 -> 20 ;
21 [label="gini = 0.0\nsamples = 3\nvalue = [3, 0]"] ;
20 -> 21 ;
22 [label="gini = 0.0\nsamples = 12\nvalue = [0, 12]"] ;
20 -> 22 ;
23 [label="gini = 0.0\nsamples = 585\nvalue = [585, 0]"] ;
17 -> 23 ;
24 [label="X[3] <= 190.57\ngini = 0.441\nsamples = 557\nvalue = [374, 183]"] ;
6 -> 24 ;
25 [label="gini = 0.0\nsamples = 87\nvalue = [87, 0]"] ;
24 -> 25 ;
26 [label="X[6] <= 44496.0\ngini = 0.476\nsamples = 470\nvalue = [287, 183]"] ;
24 -> 26 ;
27 [label="X[13] <= 71616.0\ngini = 0.492\nsamples = 235\nvalue = [103, 132]"] ;
26 -> 27 ;
28 [label="X[13] <= 49044.0\ngini = 0.475\nsamples = 216\nvalue = [84, 132]"] ;
27 -> 28 ;
29 [label="X[10] <= 19.5\ngini = 0.482\nsamples = 96\nvalue = [57, 39]"] ;
28 -> 29 ;
30 [label="gini = 0.0\nsamples = 31\nvalue = [31, 0]"] ;
29 -> 30 ;
31 [label="X[7] <= 10.5\ngini = 0.48\nsamples = 65\nvalue = [26, 39]"] ;
29 -> 31 ;
32 [label="X[15] <= 0.5\ngini = 0.282\nsamples = 47\nvalue = [8, 39]"] ;
31 -> 32 ;
33 [label="X[4] <= 1.5\ngini = 0.133\nsamples = 42\nvalue = [3, 39]"] ;
32 -> 33 ;
34 [label="gini = 0.0\nsamples = 2\nvalue = [2, 0]"] ;
33 -> 34 ;
35 [label="X[8] <= 0.5\ngini = 0.049\nsamples = 40\nvalue = [1, 39]"] ;
33 -> 35 ;
36 [label="gini = 0.0\nsamples = 39\nvalue = [0, 39]"] ;
35 -> 36 ;
37 [label="gini = 0.0\nsamples = 1\nvalue = [1, 0]"] ;
35 -> 37 ;
38 [label="gini = 0.0\nsamples = 5\nvalue = [5, 0]"] ;
32 -> 38 ;
39 [label="gini = 0.0\nsamples = 18\nvalue = [18, 0]"] ;
31 -> 39 ;
40 [label="X[5] <= 7.5\ngini = 0.349\nsamples = 120\nvalue = [27, 93]"] ;
28 -> 40 ;
41 [label="X[2] <= 11.105\ngini = 0.239\nsamples = 108\nvalue = [15, 93]"] ;
40 -> 41 ;
42 [label="X[16] <= 0.5\ngini = 0.189\nsamples = 104\nvalue = [11, 93]"] ;
41 -> 42 ;
43 [label="X[6] <= 27000.0\ngini = 0.146\nsamples = 101\nvalue = [8, 93]"] ;
42 -> 43 ;
44 [label="gini = 0.0\nsamples = 2\nvalue = [2, 0]"] ;
43 -> 44 ;
45 [label="X[9] <= 4704.0\ngini = 0.114\nsamples = 99\nvalue = [6, 93]"] ;
43 -> 45 ;
46 [label="gini = 0.0\nsamples = 2\nvalue = [2, 0]"] ;
45 -> 46 ;
47 [label="X[6] <= 42750.0\ngini = 0.079\nsamples = 97\nvalue = [4, 93]"] ;
45 -> 47 ;
48 [label="X[1] <= 48.0\ngini = 0.061\nsamples = 96\nvalue = [3, 93]"] ;
47 -> 48 ;
49 [label="X[4] <= 1.5\ngini = 0.041\nsamples = 95\nvalue = [2, 93]"] ;
48 -> 49 ;
50 [label="gini = 0.172\nsamples = 21\nvalue = [2, 19]"] ;
49 -> 50 ;
51 [label="gini = 0.0\nsamples = 74\nvalue = [0, 74]"] ;
49 -> 51 ;
52 [label="gini = 0.0\nsamples = 1\nvalue = [1, 0]"] ;
48 -> 52 ;
53 [label="gini = 0.0\nsamples = 1\nvalue = [1, 0]"] ;
47 -> 53 ;
54 [label="gini = 0.0\nsamples = 3\nvalue = [3, 0]"] ;
42 -> 54 ;
55 [label="gini = 0.0\nsamples = 4\nvalue = [4, 0]"] ;
41 -> 55 ;
56 [label="gini = 0.0\nsamples = 12\nvalue = [12, 0]"] ;
40 -> 56 ;
57 [label="gini = 0.0\nsamples = 19\nvalue = [19, 0]"] ;
27 -> 57 ;
58 [label="X[3] <= 192.43\ngini = 0.34\nsamples = 235\nvalue = [184, 51]"] ;
26 -> 58 ;
59 [label="X[9] <= 4468.5\ngini = 0.124\nsamples = 15\nvalue = [1, 14]"] ;
58 -> 59 ;
60 [label="gini = 0.0\nsamples = 14\nvalue = [0, 14]"] ;
59 -> 60 ;
61 [label="gini = 0.0\nsamples = 1\nvalue = [1, 0]"] ;
59 -> 61 ;
62 [label="X[7] <= 4.5\ngini = 0.28\nsamples = 220\nvalue = [183, 37]"] ;
58 -> 62 ;
63 [label="X[5] <= 8.5\ngini = 0.142\nsamples = 13\nvalue = [1, 12]"] ;
62 -> 63 ;
64 [label="gini = 0.0\nsamples = 12\nvalue = [0, 12]"] ;
63 -> 64 ;
65 [label="gini = 0.0\nsamples = 1\nvalue = [1, 0]"] ;
63 -> 65 ;
66 [label="X[9] <= 12734.0\ngini = 0.212\nsamples = 207\nvalue = [182, 25]"] ;
62 -> 66 ;
67 [label="gini = 0.0\nsamples = 105\nvalue = [105, 0]"] ;
66 -> 67 ;
68 [label="X[9] <= 12770.5\ngini = 0.37\nsamples = 102\nvalue = [77, 25]"] ;
66 -> 68 ;
69 [label="gini = 0.0\nsamples = 14\nvalue = [0, 14]"] ;
68 -> 69 ;
70 [label="X[0] <= 9362.5\ngini = 0.219\nsamples = 88\nvalue = [77, 11]"] ;
68 -> 70 ;
71 [label="X[0] <= 9062.5\ngini = 0.495\nsamples = 20\nvalue = [9, 11]"] ;
70 -> 71 ;
72 [label="gini = 0.0\nsamples = 9\nvalue = [9, 0]"] ;
71 -> 72 ;
73 [label="gini = 0.0\nsamples = 11\nvalue = [0, 11]"] ;
71 -> 73 ;
74 [label="gini = 0.0\nsamples = 68\nvalue = [68, 0]"] ;
70 -> 74 ;
75 [label="X[0] <= 4900.0\ngini = 0.099\nsamples = 711\nvalue = [674, 37]"] ;
5 -> 75 ;
76 [label="X[2] <= 8.04\ngini = 0.499\nsamples = 55\nvalue = [29, 26]"] ;
75 -> 76 ;
77 [label="X[14] <= 0.5\ngini = 0.401\nsamples = 36\nvalue = [10, 26]"] ;
76 -> 77 ;
78 [label="X[6] <= 82962.0\ngini = 0.231\nsamples = 30\nvalue = [4, 26]"] ;
77 -> 78 ;
79 [label="gini = 0.0\nsamples = 4\nvalue = [4, 0]"] ;
78 -> 79 ;
80 [label="gini = 0.0\nsamples = 26\nvalue = [0, 26]"] ;
78 -> 80 ;
81 [label="gini = 0.0\nsamples = 6\nvalue = [6, 0]"] ;
77 -> 81 ;
82 [label="gini = 0.0\nsamples = 19\nvalue = [19, 0]"] ;
76 -> 82 ;
83 [label="X[6] <= 68600.0\ngini = 0.033\nsamples = 656\nvalue = [645, 11]"] ;
75 -> 83 ;
84 [label="X[3] <= 447.315\ngini = 0.142\nsamples = 143\nvalue = [132, 11]"] ;
83 -> 84 ;
85 [label="gini = 0.0\nsamples = 98\nvalue = [98, 0]"] ;
84 -> 85 ;
86 [label="X[6] <= 68250.0\ngini = 0.369\nsamples = 45\nvalue = [34, 11]"] ;
84 -> 86 ;
87 [label="gini = 0.0\nsamples = 34\nvalue = [34, 0]"] ;
86 -> 87 ;
88 [label="gini = 0.0\nsamples = 11\nvalue = [0, 11]"] ;
86 -> 88 ;
89 [label="gini = 0.0\nsamples = 513\nvalue = [513, 0]"] ;
83 -> 89 ;
90 [label="X[4] <= 2.5\ngini = 0.431\nsamples = 881\nvalue = [604, 277]"] ;
4 -> 90 ;
91 [label="X[6] <= 21250.0\ngini = 0.498\nsamples = 483\nvalue = [255, 228]"] ;
90 -> 91 ;
92 [label="X[10] <= 13.5\ngini = 0.041\nsamples = 48\nvalue = [1, 47]"] ;
91 -> 92 ;
93 [label="gini = 0.0\nsamples = 1\nvalue = [1, 0]"] ;
92 -> 93 ;
94 [label="gini = 0.0\nsamples = 47\nvalue = [0, 47]"] ;
92 -> 94 ;
95 [label="X[0] <= 7525.0\ngini = 0.486\nsamples = 435\nvalue = [254, 181]"] ;
91 -> 95 ;
96 [label="X[9] <= 28831.0\ngini = 0.159\nsamples = 92\nvalue = [84, 8]"] ;
95 -> 96 ;
97 [label="gini = 0.0\nsamples = 84\nvalue = [84, 0]"] ;
96 -> 97 ;
98 [label="gini = 0.0\nsamples = 8\nvalue = [0, 8]"] ;
96 -> 98 ;
99 [label="X[10] <= 20.5\ngini = 0.5\nsamples = 343\nvalue = [170, 173]"] ;
95 -> 99 ;
100 [label="X[2] <= 12.42\ngini = 0.46\nsamples = 218\nvalue = [78, 140]"] ;
99 -> 100 ;
101 [label="X[7] <= 6.5\ngini = 0.411\nsamples = 197\nvalue = [57, 140]"] ;
100 -> 101 ;
102 [label="X[3] <= 499.905\ngini = 0.428\nsamples = 29\nvalue = [20, 9]"] ;
101 -> 102 ;
103 [label="gini = 0.0\nsamples = 19\nvalue = [19, 0]"] ;
102 -> 103 ;
104 [label="X[9] <= 12075.5\ngini = 0.18\nsamples = 10\nvalue = [1, 9]"] ;
102 -> 104 ;
105 [label="gini = 0.0\nsamples = 1\nvalue = [1, 0]"] ;
104 -> 105 ;
106 [label="gini = 0.0\nsamples = 9\nvalue = [0, 9]"] ;
104 -> 106 ;
107 [label="X[13] <= 17104.5\ngini = 0.343\nsamples = 168\nvalue = [37, 131]"] ;
101 -> 107 ;
108 [label="gini = 0.0\nsamples = 8\nvalue = [8, 0]"] ;
107 -> 108 ;
109 [label="X[7] <= 13.5\ngini = 0.297\nsamples = 160\nvalue = [29, 131]"] ;
107 -> 109 ;
110 [label="X[1] <= 48.0\ngini = 0.262\nsamples = 155\nvalue = [24, 131]"] ;
109 -> 110 ;
111 [label="X[9] <= 15699.5\ngini = 0.238\nsamples = 152\nvalue = [21, 131]"] ;
110 -> 111 ;
112 [label="X[9] <= 5779.0\ngini = 0.379\nsamples = 63\nvalue = [16, 47]"] ;
111 -> 112 ;
113 [label="X[6] <= 48048.5\ngini = 0.113\nsamples = 50\nvalue = [3, 47]"] ;
112 -> 113 ;
114 [label="gini = 0.0\nsamples = 47\nvalue = [0, 47]"] ;
113 -> 114 ;
115 [label="gini = 0.0\nsamples = 3\nvalue = [3, 0]"] ;
113 -> 115 ;
116 [label="gini = 0.0\nsamples = 13\nvalue = [13, 0]"] ;
112 -> 116 ;
117 [label="X[13] <= 44556.5\ngini = 0.106\nsamples = 89\nvalue = [5, 84]"] ;
111 -> 117 ;
118 [label="X[5] <= 8.0\ngini = 0.067\nsamples = 87\nvalue = [3, 84]"] ;
117 -> 118 ;
119 [label="X[10] <= 9.5\ngini = 0.045\nsamples = 86\nvalue = [2, 84]"] ;
118 -> 119 ;
120 [label="gini = 0.0\nsamples = 1\nvalue = [1, 0]"] ;
119 -> 120 ;
121 [label="X[9] <= 19055.0\ngini = 0.023\nsamples = 85\nvalue = [1, 84]"] ;
119 -> 121 ;
122 [label="gini = 0.0\nsamples = 64\nvalue = [0, 64]"] ;
121 -> 122 ;
123 [label="gini = 0.091\nsamples = 21\nvalue = [1, 20]"] ;
121 -> 123 ;
124 [label="gini = 0.0\nsamples = 1\nvalue = [1, 0]"] ;
118 -> 124 ;
125 [label="gini = 0.0\nsamples = 2\nvalue = [2, 0]"] ;
117 -> 125 ;
126 [label="gini = 0.0\nsamples = 3\nvalue = [3, 0]"] ;
110 -> 126 ;
127 [label="gini = 0.0\nsamples = 5\nvalue = [5, 0]"] ;
109 -> 127 ;
128 [label="gini = 0.0\nsamples = 21\nvalue = [21, 0]"] ;
100 -> 128 ;
129 [label="X[7] <= 14.5\ngini = 0.389\nsamples = 125\nvalue = [92, 33]"] ;
99 -> 129 ;
130 [label="gini = 0.0\nsamples = 61\nvalue = [61, 0]"] ;
129 -> 130 ;
131 [label="X[3] <= 400.325\ngini = 0.5\nsamples = 64\nvalue = [31, 33]"] ;
129 -> 131 ;
132 [label="X[9] <= 5674.5\ngini = 0.457\nsamples = 51\nvalue = [18, 33]"] ;
131 -> 132 ;
133 [label="X[5] <= 3.0\ngini = 0.142\nsamples = 26\nvalue = [2, 24]"] ;
132 -> 133 ;
134 [label="gini = 0.0\nsamples = 24\nvalue = [0, 24]"] ;
133 -> 134 ;
135 [label="gini = 0.0\nsamples = 2\nvalue = [2, 0]"] ;
133 -> 135 ;
136 [label="X[9] <= 29183.0\ngini = 0.461\nsamples = 25\nvalue = [16, 9]"] ;
132 -> 136 ;
137 [label="gini = 0.0\nsamples = 16\nvalue = [16, 0]"] ;
136 -> 137 ;
138 [label="gini = 0.0\nsamples = 9\nvalue = [0, 9]"] ;
136 -> 138 ;
139 [label="gini = 0.0\nsamples = 13\nvalue = [13, 0]"] ;
131 -> 139 ;
140 [label="X[9] <= 15652.0\ngini = 0.216\nsamples = 398\nvalue = [349, 49]"] ;
90 -> 140 ;
141 [label="X[14] <= 0.5\ngini = 0.089\nsamples = 299\nvalue = [285, 14]"] ;
140 -> 141 ;
142 [label="gini = 0.0\nsamples = 201\nvalue = [201, 0]"] ;
141 -> 142 ;
143 [label="X[7] <= 6.5\ngini = 0.245\nsamples = 98\nvalue = [84, 14]"] ;
141 -> 143 ;
144 [label="X[9] <= 8631.5\ngini = 0.498\nsamples = 30\nvalue = [16, 14]"] ;
143 -> 144 ;
145 [label="gini = 0.0\nsamples = 15\nvalue = [15, 0]"] ;
144 -> 145 ;
146 [label="X[9] <= 9025.5\ngini = 0.124\nsamples = 15\nvalue = [1, 14]"] ;
144 -> 146 ;
147 [label="gini = 0.0\nsamples = 14\nvalue = [0, 14]"] ;
146 -> 147 ;
148 [label="gini = 0.0\nsamples = 1\nvalue = [1, 0]"] ;
146 -> 148 ;
149 [label="gini = 0.0\nsamples = 68\nvalue = [68, 0]"] ;
143 -> 149 ;
150 [label="X[9] <= 15704.0\ngini = 0.457\nsamples = 99\nvalue = [64, 35]"] ;
140 -> 150 ;
151 [label="gini = 0.0\nsamples = 19\nvalue = [0, 19]"] ;
150 -> 151 ;
152 [label="X[0] <= 5150.0\ngini = 0.32\nsamples = 80\nvalue = [64, 16]"] ;
150 -> 152 ;
153 [label="X[10] <= 15.5\ngini = 0.363\nsamples = 21\nvalue = [5, 16]"] ;
152 -> 153 ;
154 [label="gini = 0.0\nsamples = 3\nvalue = [3, 0]"] ;
153 -> 154 ;
155 [label="X[13] <= 51989.0\ngini = 0.198\nsamples = 18\nvalue = [2, 16]"] ;
153 -> 155 ;
156 [label="gini = 0.0\nsamples = 2\nvalue = [2, 0]"] ;
155 -> 156 ;
157 [label="gini = 0.0\nsamples = 16\nvalue = [0, 16]"] ;
155 -> 157 ;
158 [label="gini = 0.0\nsamples = 59\nvalue = [59, 0]"] ;
152 -> 158 ;
159 [label="X[6] <= 80500.0\ngini = 0.483\nsamples = 752\nvalue = [445, 307]"] ;
3 -> 159 ;
160 [label="X[3] <= 693.865\ngini = 0.487\nsamples = 489\nvalue = [205, 284]"] ;
159 -> 160 ;
161 [label="X[13] <= 59065.5\ngini = 0.427\nsamples = 385\nvalue = [119, 266]"] ;
160 -> 161 ;
162 [label="X[2] <= 8.285\ngini = 0.393\nsamples = 364\nvalue = [98, 266]"] ;
161 -> 162 ;
163 [label="X[13] <= 4088.0\ngini = 0.457\nsamples = 48\nvalue = [31, 17]"] ;
162 -> 163 ;
164 [label="gini = 0.0\nsamples = 17\nvalue = [0, 17]"] ;
163 -> 164 ;
165 [label="gini = 0.0\nsamples = 31\nvalue = [31, 0]"] ;
163 -> 165 ;
166 [label="X[7] <= 6.5\ngini = 0.334\nsamples = 316\nvalue = [67, 249]"] ;
162 -> 166 ;
167 [label="gini = 0.0\nsamples = 10\nvalue = [10, 0]"] ;
166 -> 167 ;
168 [label="X[4] <= 2.5\ngini = 0.303\nsamples = 306\nvalue = [57, 249]"] ;
166 -> 168 ;
169 [label="X[9] <= 27377.0\ngini = 0.271\nsamples = 297\nvalue = [48, 249]"] ;
168 -> 169 ;
170 [label="X[12] <= 56.0\ngini = 0.243\nsamples = 290\nvalue = [41, 249]"] ;
169 -> 170 ;
171 [label="X[10] <= 21.5\ngini = 0.23\nsamples = 287\nvalue = [38, 249]"] ;
170 -> 171 ;
172 [label="X[20] <= 0.5\ngini = 0.114\nsamples = 149\nvalue = [9, 140]"] ;
171 -> 172 ;
173 [label="X[5] <= 9.0\ngini = 0.091\nsamples = 147\nvalue = [7, 140]"] ;
172 -> 173 ;
174 [label="X[1] <= 48.0\ngini = 0.031\nsamples = 129\nvalue = [2, 127]"] ;
173 -> 174 ;
175 [label="X[5] <= 2.5\ngini = 0.016\nsamples = 128\nvalue = [1, 127]"] ;
174 -> 175 ;
176 [label="X[0] <= 19000.0\ngini = 0.111\nsamples = 17\nvalue = [1, 16]"] ;
175 -> 176 ;
177 [label="gini = 0.0\nsamples = 16\nvalue = [0, 16]"] ;
176 -> 177 ;
178 [label="gini = 0.0\nsamples = 1\nvalue = [1, 0]"] ;
176 -> 178 ;
179 [label="gini = 0.0\nsamples = 111\nvalue = [0, 111]"] ;
175 -> 179 ;
180 [label="gini = 0.0\nsamples = 1\nvalue = [1, 0]"] ;
174 -> 180 ;
181 [label="X[2] <= 11.825\ngini = 0.401\nsamples = 18\nvalue = [5, 13]"] ;
173 -> 181 ;
182 [label="gini = 0.0\nsamples = 5\nvalue = [5, 0]"] ;
181 -> 182 ;
183 [label="gini = 0.0\nsamples = 13\nvalue = [0, 13]"] ;
181 -> 183 ;
184 [label="gini = 0.0\nsamples = 2\nvalue = [2, 0]"] ;
172 -> 184 ;
185 [label="X[13] <= 19413.5\ngini = 0.332\nsamples = 138\nvalue = [29, 109]"] ;
171 -> 185 ;
186 [label="gini = 0.0\nsamples = 4\nvalue = [4, 0]"] ;
185 -> 186 ;
187 [label="X[2] <= 10.07\ngini = 0.304\nsamples = 134\nvalue = [25, 109]"] ;
185 -> 187 ;
188 [label="X[13] <= 31842.0\ngini = 0.484\nsamples = 34\nvalue = [14, 20]"] ;
187 -> 188 ;
189 [label="X[3] <= 615.16\ngini = 0.165\nsamples = 22\nvalue = [2, 20]"] ;
188 -> 189 ;
190 [label="gini = 0.0\nsamples = 2\nvalue = [2, 0]"] ;
189 -> 190 ;
191 [label="gini = 0.0\nsamples = 20\nvalue = [0, 20]"] ;
189 -> 191 ;
192 [label="gini = 0.0\nsamples = 12\nvalue = [12, 0]"] ;
188 -> 192 ;
193 [label="X[0] <= 19625.0\ngini = 0.196\nsamples = 100\nvalue = [11, 89]"] ;
187 -> 193 ;
194 [label="X[9] <= 23964.0\ngini = 0.096\nsamples = 79\nvalue = [4, 75]"] ;
193 -> 194 ;
195 [label="X[9] <= 8324.5\ngini = 0.051\nsamples = 77\nvalue = [2, 75]"] ;
194 -> 195 ;
196 [label="gini = 0.0\nsamples = 52\nvalue = [0, 52]"] ;
195 -> 196 ;
197 [label="X[9] <= 18876.0\ngini = 0.147\nsamples = 25\nvalue = [2, 23]"] ;
195 -> 197 ;
198 [label="gini = 0.0\nsamples = 2\nvalue = [2, 0]"] ;
197 -> 198 ;
199 [label="gini = 0.0\nsamples = 23\nvalue = [0, 23]"] ;
197 -> 199 ;
200 [label="gini = 0.0\nsamples = 2\nvalue = [2, 0]"] ;
194 -> 200 ;
201 [label="X[3] <= 668.445\ngini = 0.444\nsamples = 21\nvalue = [7, 14]"] ;
193 -> 201 ;
202 [label="gini = 0.0\nsamples = 7\nvalue = [7, 0]"] ;
201 -> 202 ;
203 [label="gini = 0.0\nsamples = 14\nvalue = [0, 14]"] ;
201 -> 203 ;
204 [label="gini = 0.0\nsamples = 3\nvalue = [3, 0]"] ;
170 -> 204 ;
205 [label="gini = 0.0\nsamples = 7\nvalue = [7, 0]"] ;
169 -> 205 ;
206 [label="gini = 0.0\nsamples = 9\nvalue = [9, 0]"] ;
168 -> 206 ;
207 [label="gini = 0.0\nsamples = 21\nvalue = [21, 0]"] ;
161 -> 207 ;
208 [label="X[10] <= 15.5\ngini = 0.286\nsamples = 104\nvalue = [86, 18]"] ;
160 -> 208 ;
209 [label="X[6] <= 78000.0\ngini = 0.5\nsamples = 36\nvalue = [18, 18]"] ;
208 -> 209 ;
210 [label="gini = 0.0\nsamples = 16\nvalue = [16, 0]"] ;
209 -> 210 ;
211 [label="X[9] <= 14843.5\ngini = 0.18\nsamples = 20\nvalue = [2, 18]"] ;
209 -> 211 ;
212 [label="gini = 0.0\nsamples = 2\nvalue = [2, 0]"] ;
211 -> 212 ;
213 [label="gini = 0.0\nsamples = 18\nvalue = [0, 18]"] ;
211 -> 213 ;
214 [label="gini = 0.0\nsamples = 68\nvalue = [68, 0]"] ;
208 -> 214 ;
215 [label="X[10] <= 43.5\ngini = 0.16\nsamples = 263\nvalue = [240, 23]"] ;
159 -> 215 ;
216 [label="X[20] <= 0.5\ngini = 0.033\nsamples = 235\nvalue = [231, 4]"] ;
215 -> 216 ;
217 [label="gini = 0.0\nsamples = 208\nvalue = [208, 0]"] ;
216 -> 217 ;
218 [label="X[13] <= 28229.5\ngini = 0.252\nsamples = 27\nvalue = [23, 4]"] ;
216 -> 218 ;
219 [label="X[5] <= 8.0\ngini = 0.5\nsamples = 8\nvalue = [4, 4]"] ;
218 -> 219 ;
220 [label="gini = 0.0\nsamples = 4\nvalue = [4, 0]"] ;
219 -> 220 ;
221 [label="gini = 0.0\nsamples = 4\nvalue = [0, 4]"] ;
219 -> 221 ;
222 [label="gini = 0.0\nsamples = 19\nvalue = [19, 0]"] ;
218 -> 222 ;
223 [label="X[2] <= 10.57\ngini = 0.436\nsamples = 28\nvalue = [9, 19]"] ;
215 -> 223 ;
224 [label="X[10] <= 48.5\ngini = 0.172\nsamples = 21\nvalue = [2, 19]"] ;
223 -> 224 ;
225 [label="gini = 0.0\nsamples = 19\nvalue = [0, 19]"] ;
224 -> 225 ;
226 [label="gini = 0.0\nsamples = 2\nvalue = [2, 0]"] ;
224 -> 226 ;
227 [label="gini = 0.0\nsamples = 7\nvalue = [7, 0]"] ;
223 -> 227 ;
228 [label="X[13] <= 81027.25\ngini = 0.453\nsamples = 1723\nvalue = [596, 1127]"] ;
2 -> 228 ;
229 [label="X[10] <= 45.5\ngini = 0.434\nsamples = 1594\nvalue = [508, 1086]"] ;
228 -> 229 ;
230 [label="X[6] <= 35010.0\ngini = 0.428\nsamples = 1576\nvalue = [490, 1086]"] ;
229 -> 230 ;
231 [label="X[5] <= 2.5\ngini = 0.321\nsamples = 424\nvalue = [85, 339]"] ;
230 -> 231 ;
232 [label="X[6] <= 14565.0\ngini = 0.229\nsamples = 288\nvalue = [38, 250]"] ;
231 -> 232 ;
233 [label="gini = 0.0\nsamples = 6\nvalue = [6, 0]"] ;
232 -> 233 ;
234 [label="X[4] <= 2.5\ngini = 0.201\nsamples = 282\nvalue = [32, 250]"] ;
232 -> 234 ;
235 [label="X[3] <= 50.18\ngini = 0.191\nsamples = 280\nvalue = [30, 250]"] ;
234 -> 235 ;
236 [label="gini = 0.0\nsamples = 2\nvalue = [2, 0]"] ;
235 -> 236 ;
237 [label="X[3] <= 442.7\ngini = 0.181\nsamples = 278\nvalue = [28, 250]"] ;
235 -> 237 ;
238 [label="X[9] <= 57204.5\ngini = 0.171\nsamples = 276\nvalue = [26, 250]"] ;
237 -> 238 ;
239 [label="X[2] <= 12.165\ngini = 0.165\nsamples = 275\nvalue = [25, 250]"] ;
238 -> 239 ;
240 [label="X[6] <= 23500.0\ngini = 0.16\nsamples = 274\nvalue = [24, 250]"] ;
239 -> 240 ;
241 [label="X[2] <= 9.935\ngini = 0.049\nsamples = 120\nvalue = [3, 117]"] ;
240 -> 241 ;
242 [label="gini = 0.0\nsamples = 87\nvalue = [0, 87]"] ;
241 -> 242 ;
243 [label="X[9] <= 2083.5\ngini = 0.165\nsamples = 33\nvalue = [3, 30]"] ;
241 -> 243 ;
244 [label="gini = 0.0\nsamples = 3\nvalue = [3, 0]"] ;
243 -> 244 ;
245 [label="gini = 0.0\nsamples = 30\nvalue = [0, 30]"] ;
243 -> 245 ;
246 [label="X[2] <= 10.805\ngini = 0.236\nsamples = 154\nvalue = [21, 133]"] ;
240 -> 246 ;
247 [label="X[15] <= 0.5\ngini = 0.427\nsamples = 55\nvalue = [17, 38]"] ;
246 -> 247 ;
248 [label="gini = 0.0\nsamples = 11\nvalue = [11, 0]"] ;
247 -> 248 ;
249 [label="X[9] <= 725.5\ngini = 0.236\nsamples = 44\nvalue = [6, 38]"] ;
247 -> 249 ;
250 [label="gini = 0.0\nsamples = 2\nvalue = [2, 0]"] ;
249 -> 250 ;
251 [label="X[1] <= 48.0\ngini = 0.172\nsamples = 42\nvalue = [4, 38]"] ;
249 -> 251 ;
252 [label="X[6] <= 33500.0\ngini = 0.136\nsamples = 41\nvalue = [3, 38]"] ;
251 -> 252 ;
253 [label="gini = 0.095\nsamples = 40\nvalue = [2, 38]"] ;
252 -> 253 ;
254 [label="gini = 0.0\nsamples = 1\nvalue = [1, 0]"] ;
252 -> 254 ;
255 [label="gini = 0.0\nsamples = 1\nvalue = [1, 0]"] ;
251 -> 255 ;
256 [label="X[1] <= 48.0\ngini = 0.078\nsamples = 99\nvalue = [4, 95]"] ;
246 -> 256 ;
257 [label="X[0] <= 3250.0\ngini = 0.059\nsamples = 98\nvalue = [3, 95]"] ;
256 -> 257 ;
258 [label="gini = 0.0\nsamples = 1\nvalue = [1, 0]"] ;
257 -> 258 ;
259 [label="X[10] <= 9.0\ngini = 0.04\nsamples = 97\nvalue = [2, 95]"] ;
257 -> 259 ;
260 [label="X[7] <= 6.5\ngini = 0.219\nsamples = 16\nvalue = [2, 14]"] ;
259 -> 260 ;
261 [label="gini = 0.0\nsamples = 14\nvalue = [0, 14]"] ;
260 -> 261 ;
262 [label="gini = 0.0\nsamples = 2\nvalue = [2, 0]"] ;
260 -> 262 ;
263 [label="gini = 0.0\nsamples = 81\nvalue = [0, 81]"] ;
259 -> 263 ;
264 [label="gini = 0.0\nsamples = 1\nvalue = [1, 0]"] ;
256 -> 264 ;
265 [label="gini = 0.0\nsamples = 1\nvalue = [1, 0]"] ;
239 -> 265 ;
266 [label="gini = 0.0\nsamples = 1\nvalue = [1, 0]"] ;
238 -> 266 ;
267 [label="gini = 0.0\nsamples = 2\nvalue = [2, 0]"] ;
237 -> 267 ;
268 [label="gini = 0.0\nsamples = 2\nvalue = [2, 0]"] ;
234 -> 268 ;
269 [label="X[7] <= 5.5\ngini = 0.452\nsamples = 136\nvalue = [47, 89]"] ;
231 -> 269 ;
270 [label="gini = 0.0\nsamples = 15\nvalue = [15, 0]"] ;
269 -> 270 ;
271 [label="X[7] <= 14.5\ngini = 0.389\nsamples = 121\nvalue = [32, 89]"] ;
269 -> 271 ;
272 [label="X[0] <= 3900.0\ngini = 0.35\nsamples = 115\nvalue = [26, 89]"] ;
271 -> 272 ;
273 [label="gini = 0.0\nsamples = 5\nvalue = [5, 0]"] ;
272 -> 273 ;
274 [label="X[3] <= 322.7\ngini = 0.309\nsamples = 110\nvalue = [21, 89]"] ;
272 -> 274 ;
275 [label="X[9] <= 1749.5\ngini = 0.258\nsamples = 105\nvalue = [16, 89]"] ;
274 -> 275 ;
276 [label="gini = 0.0\nsamples = 3\nvalue = [3, 0]"] ;
275 -> 276 ;
277 [label="X[2] <= 12.685\ngini = 0.222\nsamples = 102\nvalue = [13, 89]"] ;
275 -> 277 ;
278 [label="X[6] <= 29326.0\ngini = 0.196\nsamples = 100\nvalue = [11, 89]"] ;
277 -> 278 ;
279 [label="X[6] <= 22000.0\ngini = 0.389\nsamples = 34\nvalue = [9, 25]"] ;
278 -> 279 ;
280 [label="X[10] <= 14.5\ngini = 0.137\nsamples = 27\nvalue = [2, 25]"] ;
279 -> 280 ;
281 [label="gini = 0.0\nsamples = 2\nvalue = [2, 0]"] ;
280 -> 281 ;
282 [label="gini = 0.0\nsamples = 25\nvalue = [0, 25]"] ;
280 -> 282 ;
283 [label="gini = 0.0\nsamples = 7\nvalue = [7, 0]"] ;
279 -> 283 ;
284 [label="X[3] <= 178.585\ngini = 0.059\nsamples = 66\nvalue = [2, 64]"] ;
278 -> 284 ;
285 [label="gini = 0.0\nsamples = 2\nvalue = [2, 0]"] ;
284 -> 285 ;
286 [label="gini = 0.0\nsamples = 64\nvalue = [0, 64]"] ;
284 -> 286 ;
287 [label="gini = 0.0\nsamples = 2\nvalue = [2, 0]"] ;
277 -> 287 ;
288 [label="gini = 0.0\nsamples = 5\nvalue = [5, 0]"] ;
274 -> 288 ;
289 [label="gini = 0.0\nsamples = 6\nvalue = [6, 0]"] ;
271 -> 289 ;
290 [label="X[2] <= 6.355\ngini = 0.456\nsamples = 1152\nvalue = [405, 747]"] ;
230 -> 290 ;
291 [label="gini = 0.0\nsamples = 43\nvalue = [43, 0]"] ;
290 -> 291 ;
292 [label="X[10] <= 10.5\ngini = 0.44\nsamples = 1109\nvalue = [362, 747]"] ;
290 -> 292 ;
293 [label="gini = 0.0\nsamples = 40\nvalue = [40, 0]"] ;
292 -> 293 ;
294 [label="X[9] <= 2006.5\ngini = 0.421\nsamples = 1069\nvalue = [322, 747]"] ;
292 -> 294 ;
295 [label="X[4] <= 2.5\ngini = 0.459\nsamples = 56\nvalue = [36, 20]"] ;
294 -> 295 ;
296 [label="gini = 0.0\nsamples = 34\nvalue = [34, 0]"] ;
295 -> 296 ;
297 [label="X[21] <= 0.5\ngini = 0.165\nsamples = 22\nvalue = [2, 20]"] ;
295 -> 297 ;
298 [label="gini = 0.0\nsamples = 2\nvalue = [2, 0]"] ;
297 -> 298 ;
299 [label="gini = 0.0\nsamples = 20\nvalue = [0, 20]"] ;
297 -> 299 ;
300 [label="X[0] <= 30650.0\ngini = 0.405\nsamples = 1013\nvalue = [286, 727]"] ;
294 -> 300 ;
301 [label="X[9] <= 4725.5\ngini = 0.4\nsamples = 1005\nvalue = [278, 727]"] ;
300 -> 301 ;
302 [label="X[10] <= 21.5\ngini = 0.249\nsamples = 233\nvalue = [34, 199]"] ;
301 -> 302 ;
303 [label="X[17] <= 0.5\ngini = 0.431\nsamples = 70\nvalue = [22, 48]"] ;
302 -> 303 ;
304 [label="X[14] <= 0.5\ngini = 0.245\nsamples = 56\nvalue = [8, 48]"] ;
303 -> 304 ;
305 [label="X[4] <= 1.5\ngini = 0.142\nsamples = 52\nvalue = [4, 48]"] ;
304 -> 305 ;
306 [label="gini = 0.0\nsamples = 1\nvalue = [1, 0]"] ;
305 -> 306 ;
307 [label="X[10] <= 17.0\ngini = 0.111\nsamples = 51\nvalue = [3, 48]"] ;
305 -> 307 ;
308 [label="X[1] <= 48.0\ngini = 0.04\nsamples = 49\nvalue = [1, 48]"] ;
307 -> 308 ;
309 [label="X[0] <= 12000.0\ngini = 0.133\nsamples = 14\nvalue = [1, 13]"] ;
308 -> 309 ;
310 [label="gini = 0.0\nsamples = 13\nvalue = [0, 13]"] ;
309 -> 310 ;
311 [label="gini = 0.0\nsamples = 1\nvalue = [1, 0]"] ;
309 -> 311 ;
312 [label="gini = 0.0\nsamples = 35\nvalue = [0, 35]"] ;
308 -> 312 ;
313 [label="gini = 0.0\nsamples = 2\nvalue = [2, 0]"] ;
307 -> 313 ;
314 [label="gini = 0.0\nsamples = 4\nvalue = [4, 0]"] ;
304 -> 314 ;
315 [label="gini = 0.0\nsamples = 14\nvalue = [14, 0]"] ;
303 -> 315 ;
316 [label="X[7] <= 6.5\ngini = 0.136\nsamples = 163\nvalue = [12, 151]"] ;
302 -> 316 ;
317 [label="gini = 0.0\nsamples = 2\nvalue = [2, 0]"] ;
316 -> 317 ;
318 [label="X[6] <= 40915.039\ngini = 0.117\nsamples = 161\nvalue = [10, 151]"] ;
316 -> 318 ;
319 [label="gini = 0.0\nsamples = 3\nvalue = [3, 0]"] ;
318 -> 319 ;
320 [label="X[7] <= 14.5\ngini = 0.085\nsamples = 158\nvalue = [7, 151]"] ;
318 -> 320 ;
321 [label="X[9] <= 3231.0\ngini = 0.054\nsamples = 145\nvalue = [4, 141]"] ;
320 -> 321 ;
322 [label="X[10] <= 31.5\ngini = 0.17\nsamples = 32\nvalue = [3, 29]"] ;
321 -> 322 ;
323 [label="gini = 0.0\nsamples = 3\nvalue = [3, 0]"] ;
322 -> 323 ;
324 [label="gini = 0.0\nsamples = 29\nvalue = [0, 29]"] ;
322 -> 324 ;
325 [label="X[3] <= 63.69\ngini = 0.018\nsamples = 113\nvalue = [1, 112]"] ;
321 -> 325 ;
326 [label="gini = 0.0\nsamples = 1\nvalue = [1, 0]"] ;
325 -> 326 ;
327 [label="gini = 0.0\nsamples = 112\nvalue = [0, 112]"] ;
325 -> 327 ;
328 [label="X[2] <= 7.315\ngini = 0.355\nsamples = 13\nvalue = [3, 10]"] ;
320 -> 328 ;
329 [label="X[6] <= 64500.0\ngini = 0.165\nsamples = 11\nvalue = [1, 10]"] ;
328 -> 329 ;
330 [label="gini = 0.0\nsamples = 10\nvalue = [0, 10]"] ;
329 -> 330 ;
331 [label="gini = 0.0\nsamples = 1\nvalue = [1, 0]"] ;
329 -> 331 ;
332 [label="gini = 0.0\nsamples = 2\nvalue = [2, 0]"] ;
328 -> 332 ;
333 [label="X[2] <= 11.485\ngini = 0.432\nsamples = 772\nvalue = [244, 528]"] ;
301 -> 333 ;
334 [label="X[3] <= 484.58\ngini = 0.469\nsamples = 498\nvalue = [187, 311]"] ;
333 -> 334 ;
335 [label="X[2] <= 10.205\ngini = 0.441\nsamples = 439\nvalue = [144, 295]"] ;
334 -> 335 ;
336 [label="X[9] <= 6754.0\ngini = 0.403\nsamples = 364\nvalue = [102, 262]"] ;
335 -> 336 ;
337 [label="gini = 0.0\nsamples = 13\nvalue = [13, 0]"] ;
336 -> 337 ;
338 [label="X[7] <= 14.5\ngini = 0.379\nsamples = 351\nvalue = [89, 262]"] ;
336 -> 338 ;
339 [label="X[5] <= 0.5\ngini = 0.351\nsamples = 339\nvalue = [77, 262]"] ;
338 -> 339 ;
340 [label="X[2] <= 9.895\ngini = 0.435\nsamples = 25\nvalue = [17, 8]"] ;
339 -> 340 ;
341 [label="gini = 0.0\nsamples = 15\nvalue = [15, 0]"] ;
340 -> 341 ;
342 [label="X[7] <= 11.0\ngini = 0.32\nsamples = 10\nvalue = [2, 8]"] ;
340 -> 342 ;
343 [label="gini = 0.0\nsamples = 2\nvalue = [2, 0]"] ;
342 -> 343 ;
344 [label="gini = 0.0\nsamples = 8\nvalue = [0, 8]"] ;
342 -> 344 ;
345 [label="X[6] <= 107998.0\ngini = 0.309\nsamples = 314\nvalue = [60, 254]"] ;
339 -> 345 ;
346 [label="X[4] <= 1.5\ngini = 0.279\nsamples = 305\nvalue = [51, 254]"] ;
345 -> 346 ;
347 [label="gini = 0.346\nsamples = 184\nvalue = [41, 143]"] ;
346 -> 347 ;
348 [label="gini = 0.152\nsamples = 121\nvalue = [10, 111]"] ;
346 -> 348 ;
349 [label="gini = 0.0\nsamples = 9\nvalue = [9, 0]"] ;
345 -> 349 ;
350 [label="gini = 0.0\nsamples = 12\nvalue = [12, 0]"] ;
338 -> 350 ;
351 [label="X[5] <= 4.5\ngini = 0.493\nsamples = 75\nvalue = [42, 33]"] ;
335 -> 351 ;
352 [label="X[17] <= 0.5\ngini = 0.47\nsamples = 53\nvalue = [20, 33]"] ;
351 -> 352 ;
353 [label="gini = 0.0\nsamples = 14\nvalue = [14, 0]"] ;
352 -> 353 ;
354 [label="X[0] <= 8137.5\ngini = 0.26\nsamples = 39\nvalue = [6, 33]"] ;
352 -> 354 ;
355 [label="gini = 0.0\nsamples = 4\nvalue = [4, 0]"] ;
354 -> 355 ;
356 [label="X[8] <= 0.5\ngini = 0.108\nsamples = 35\nvalue = [2, 33]"] ;
354 -> 356 ;
357 [label="X[9] <= 7320.5\ngini = 0.057\nsamples = 34\nvalue = [1, 33]"] ;
356 -> 357 ;
358 [label="gini = 0.0\nsamples = 1\nvalue = [1, 0]"] ;
357 -> 358 ;
359 [label="gini = 0.0\nsamples = 33\nvalue = [0, 33]"] ;
357 -> 359 ;
360 [label="gini = 0.0\nsamples = 1\nvalue = [1, 0]"] ;
356 -> 360 ;
361 [label="gini = 0.0\nsamples = 22\nvalue = [22, 0]"] ;
351 -> 361 ;
362 [label="X[10] <= 41.5\ngini = 0.395\nsamples = 59\nvalue = [43, 16]"] ;
334 -> 362 ;
363 [label="gini = 0.0\nsamples = 43\nvalue = [43, 0]"] ;
362 -> 363 ;
364 [label="gini = 0.0\nsamples = 16\nvalue = [0, 16]"] ;
362 -> 364 ;
365 [label="X[6] <= 52250.0\ngini = 0.33\nsamples = 274\nvalue = [57, 217]"] ;
333 -> 365 ;
366 [label="X[0] <= 22500.0\ngini = 0.48\nsamples = 30\nvalue = [18, 12]"] ;
365 -> 366 ;
367 [label="gini = 0.0\nsamples = 18\nvalue = [18, 0]"] ;
366 -> 367 ;
368 [label="gini = 0.0\nsamples = 12\nvalue = [0, 12]"] ;
366 -> 368 ;
369 [label="X[6] <= 57481.5\ngini = 0.269\nsamples = 244\nvalue = [39, 205]"] ;
365 -> 369 ;
370 [label="gini = 0.0\nsamples = 69\nvalue = [0, 69]"] ;
369 -> 370 ;
371 [label="X[3] <= 166.495\ngini = 0.346\nsamples = 175\nvalue = [39, 136]"] ;
369 -> 371 ;
372 [label="gini = 0.0\nsamples = 5\nvalue = [5, 0]"] ;
371 -> 372 ;
373 [label="X[9] <= 14452.0\ngini = 0.32\nsamples = 170\nvalue = [34, 136]"] ;
371 -> 373 ;
374 [label="X[10] <= 12.0\ngini = 0.497\nsamples = 26\nvalue = [14, 12]"] ;
373 -> 374 ;
375 [label="gini = 0.0\nsamples = 12\nvalue = [0, 12]"] ;
374 -> 375 ;
376 [label="gini = 0.0\nsamples = 14\nvalue = [14, 0]"] ;
374 -> 376 ;
377 [label="X[2] <= 12.325\ngini = 0.239\nsamples = 144\nvalue = [20, 124]"] ;
373 -> 377 ;
378 [label="X[6] <= 137500.0\ngini = 0.193\nsamples = 139\nvalue = [15, 124]"] ;
377 -> 378 ;
379 [label="X[20] <= 0.5\ngini = 0.172\nsamples = 137\nvalue = [13, 124]"] ;
378 -> 379 ;
380 [label="gini = 0.15\nsamples = 135\nvalue = [11, 124]"] ;
379 -> 380 ;
381 [label="gini = 0.0\nsamples = 2\nvalue = [2, 0]"] ;
379 -> 381 ;
382 [label="gini = 0.0\nsamples = 2\nvalue = [2, 0]"] ;
378 -> 382 ;
383 [label="gini = 0.0\nsamples = 5\nvalue = [5, 0]"] ;
377 -> 383 ;
384 [label="gini = 0.0\nsamples = 8\nvalue = [8, 0]"] ;
300 -> 384 ;
385 [label="gini = 0.0\nsamples = 18\nvalue = [18, 0]"] ;
229 -> 385 ;
386 [label="X[13] <= 88263.5\ngini = 0.434\nsamples = 129\nvalue = [88, 41]"] ;
228 -> 386 ;
387 [label="X[6] <= 46500.0\ngini = 0.311\nsamples = 109\nvalue = [88, 21]"] ;
386 -> 387 ;
388 [label="X[7] <= 10.5\ngini = 0.492\nsamples = 48\nvalue = [27, 21]"] ;
387 -> 388 ;
389 [label="gini = 0.0\nsamples = 15\nvalue = [15, 0]"] ;
388 -> 389 ;
390 [label="X[5] <= 3.5\ngini = 0.463\nsamples = 33\nvalue = [12, 21]"] ;
388 -> 390 ;
391 [label="gini = 0.0\nsamples = 9\nvalue = [9, 0]"] ;
390 -> 391 ;
392 [label="X[5] <= 7.5\ngini = 0.219\nsamples = 24\nvalue = [3, 21]"] ;
390 -> 392 ;
393 [label="gini = 0.0\nsamples = 21\nvalue = [0, 21]"] ;
392 -> 393 ;
394 [label="gini = 0.0\nsamples = 3\nvalue = [3, 0]"] ;
392 -> 394 ;
395 [label="gini = 0.0\nsamples = 61\nvalue = [61, 0]"] ;
387 -> 395 ;
396 [label="gini = 0.0\nsamples = 20\nvalue = [0, 20]"] ;
386 -> 396 ;
397 [label="X[13] <= 331957.5\ngini = 0.333\nsamples = 3951\nvalue = [3118, 833]"] ;
1 -> 397 ;
398 [label="X[13] <= 328055.5\ngini = 0.373\nsamples = 3117\nvalue = [2345, 772]"] ;
397 -> 398 ;
399 [label="X[16] <= 0.5\ngini = 0.355\nsamples = 3026\nvalue = [2327, 699]"] ;
398 -> 399 ;
400 [label="X[3] <= 760.29\ngini = 0.298\nsamples = 2197\nvalue = [1797, 400]"] ;
399 -> 400 ;
401 [label="X[0] <= 14037.5\ngini = 0.268\nsamples = 1970\nvalue = [1656, 314]"] ;
400 -> 401 ;
402 [label="X[9] <= 24756.5\ngini = 0.339\nsamples = 1197\nvalue = [938, 259]"] ;
401 -> 402 ;
403 [label="X[5] <= 3.5\ngini = 0.278\nsamples = 996\nvalue = [830, 166]"] ;
402 -> 403 ;
404 [label="X[3] <= 156.445\ngini = 0.075\nsamples = 283\nvalue = [272, 11]"] ;
403 -> 404 ;
405 [label="X[3] <= 155.285\ngini = 0.418\nsamples = 37\nvalue = [26, 11]"] ;
404 -> 405 ;
406 [label="gini = 0.0\nsamples = 25\nvalue = [25, 0]"] ;
405 -> 406 ;
407 [label="X[15] <= 0.5\ngini = 0.153\nsamples = 12\nvalue = [1, 11]"] ;
405 -> 407 ;
408 [label="gini = 0.0\nsamples = 11\nvalue = [0, 11]"] ;
407 -> 408 ;
409 [label="gini = 0.0\nsamples = 1\nvalue = [1, 0]"] ;
407 -> 409 ;
410 [label="gini = 0.0\nsamples = 246\nvalue = [246, 0]"] ;
404 -> 410 ;
411 [label="X[7] <= 13.5\ngini = 0.34\nsamples = 713\nvalue = [558, 155]"] ;
403 -> 411 ;
412 [label="X[13] <= 187707.5\ngini = 0.257\nsamples = 488\nvalue = [414, 74]"] ;
411 -> 412 ;
413 [label="gini = 0.0\nsamples = 249\nvalue = [249, 0]"] ;
412 -> 413 ;
414 [label="X[3] <= 191.345\ngini = 0.428\nsamples = 239\nvalue = [165, 74]"] ;
412 -> 414 ;
415 [label="X[3] <= 174.615\ngini = 0.488\nsamples = 90\nvalue = [38, 52]"] ;
414 -> 415 ;
416 [label="X[13] <= 200110.5\ngini = 0.47\nsamples = 53\nvalue = [33, 20]"] ;
415 -> 416 ;
417 [label="X[13] <= 197864.5\ngini = 0.165\nsamples = 22\nvalue = [2, 20]"] ;
416 -> 417 ;
418 [label="gini = 0.0\nsamples = 2\nvalue = [2, 0]"] ;
417 -> 418 ;
419 [label="gini = 0.0\nsamples = 20\nvalue = [0, 20]"] ;
417 -> 419 ;
420 [label="gini = 0.0\nsamples = 31\nvalue = [31, 0]"] ;
416 -> 420 ;
421 [label="X[2] <= 8.08\ngini = 0.234\nsamples = 37\nvalue = [5, 32]"] ;
415 -> 421 ;
422 [label="gini = 0.0\nsamples = 4\nvalue = [4, 0]"] ;
421 -> 422 ;
423 [label="X[7] <= 11.5\ngini = 0.059\nsamples = 33\nvalue = [1, 32]"] ;
421 -> 423 ;
424 [label="gini = 0.0\nsamples = 32\nvalue = [0, 32]"] ;
423 -> 424 ;
425 [label="gini = 0.0\nsamples = 1\nvalue = [1, 0]"] ;
423 -> 425 ;
426 [label="X[13] <= 187978.5\ngini = 0.252\nsamples = 149\nvalue = [127, 22]"] ;
414 -> 426 ;
427 [label="gini = 0.0\nsamples = 8\nvalue = [0, 8]"] ;
426 -> 427 ;
428 [label="X[12] <= 160.0\ngini = 0.179\nsamples = 141\nvalue = [127, 14]"] ;
426 -> 428 ;
429 [label="gini = 0.0\nsamples = 114\nvalue = [114, 0]"] ;
428 -> 429 ;
430 [label="X[12] <= 197.5\ngini = 0.499\nsamples = 27\nvalue = [13, 14]"] ;
428 -> 430 ;
431 [label="gini = 0.0\nsamples = 14\nvalue = [0, 14]"] ;
430 -> 431 ;
432 [label="gini = 0.0\nsamples = 13\nvalue = [13, 0]"] ;
430 -> 432 ;
433 [label="X[9] <= 12957.0\ngini = 0.461\nsamples = 225\nvalue = [144, 81]"] ;
411 -> 433 ;
434 [label="X[10] <= 38.5\ngini = 0.5\nsamples = 164\nvalue = [83, 81]"] ;
433 -> 434 ;
435 [label="X[10] <= 26.5\ngini = 0.486\nsamples = 139\nvalue = [58, 81]"] ;
434 -> 435 ;
436 [label="gini = 0.0\nsamples = 17\nvalue = [17, 0]"] ;
435 -> 436 ;
437 [label="X[3] <= 186.74\ngini = 0.446\nsamples = 122\nvalue = [41, 81]"] ;
435 -> 437 ;
438 [label="gini = 0.0\nsamples = 8\nvalue = [8, 0]"] ;
437 -> 438 ;
439 [label="X[3] <= 251.195\ngini = 0.411\nsamples = 114\nvalue = [33, 81]"] ;
437 -> 439 ;
440 [label="X[20] <= 0.5\ngini = 0.168\nsamples = 54\nvalue = [5, 49]"] ;
439 -> 440 ;
441 [label="X[2] <= 7.895\ngini = 0.109\nsamples = 52\nvalue = [3, 49]"] ;
440 -> 441 ;
442 [label="gini = 0.0\nsamples = 2\nvalue = [2, 0]"] ;
441 -> 442 ;
443 [label="X[13] <= 96051.0\ngini = 0.039\nsamples = 50\nvalue = [1, 49]"] ;
441 -> 443 ;
444 [label="gini = 0.0\nsamples = 1\nvalue = [1, 0]"] ;
443 -> 444 ;
445 [label="gini = 0.0\nsamples = 49\nvalue = [0, 49]"] ;
443 -> 445 ;
446 [label="gini = 0.0\nsamples = 2\nvalue = [2, 0]"] ;
440 -> 446 ;
447 [label="X[6] <= 69500.0\ngini = 0.498\nsamples = 60\nvalue = [28, 32]"] ;
439 -> 447 ;
448 [label="gini = 0.0\nsamples = 16\nvalue = [16, 0]"] ;
447 -> 448 ;
449 [label="X[3] <= 300.215\ngini = 0.397\nsamples = 44\nvalue = [12, 32]"] ;
447 -> 449 ;
450 [label="gini = 0.0\nsamples = 5\nvalue = [5, 0]"] ;
449 -> 450 ;
451 [label="X[5] <= 8.0\ngini = 0.295\nsamples = 39\nvalue = [7, 32]"] ;
449 -> 451 ;
452 [label="X[12] <= 201.0\ngini = 0.111\nsamples = 34\nvalue = [2, 32]"] ;
451 -> 452 ;
453 [label="gini = 0.0\nsamples = 32\nvalue = [0, 32]"] ;
452 -> 453 ;
454 [label="gini = 0.0\nsamples = 2\nvalue = [2, 0]"] ;
452 -> 454 ;
455 [label="gini = 0.0\nsamples = 5\nvalue = [5, 0]"] ;
451 -> 455 ;
456 [label="gini = 0.0\nsamples = 25\nvalue = [25, 0]"] ;
434 -> 456 ;
457 [label="gini = 0.0\nsamples = 61\nvalue = [61, 0]"] ;
433 -> 457 ;
458 [label="X[0] <= 11975.0\ngini = 0.497\nsamples = 201\nvalue = [108, 93]"] ;
402 -> 458 ;
459 [label="X[2] <= 6.135\ngini = 0.209\nsamples = 93\nvalue = [82, 11]"] ;
458 -> 459 ;
460 [label="X[9] <= 27586.5\ngini = 0.499\nsamples = 21\nvalue = [10, 11]"] ;
459 -> 460 ;
461 [label="X[0] <= 8500.0\ngini = 0.153\nsamples = 12\nvalue = [1, 11]"] ;
460 -> 461 ;
462 [label="gini = 0.0\nsamples = 11\nvalue = [0, 11]"] ;
461 -> 462 ;
463 [label="gini = 0.0\nsamples = 1\nvalue = [1, 0]"] ;
461 -> 463 ;
464 [label="gini = 0.0\nsamples = 9\nvalue = [9, 0]"] ;
460 -> 464 ;
465 [label="gini = 0.0\nsamples = 72\nvalue = [72, 0]"] ;
459 -> 465 ;
466 [label="X[5] <= 5.0\ngini = 0.366\nsamples = 108\nvalue = [26, 82]"] ;
458 -> 466 ;
467 [label="X[3] <= 448.675\ngini = 0.162\nsamples = 90\nvalue = [8, 82]"] ;
466 -> 467 ;
468 [label="X[10] <= 15.0\ngini = 0.145\nsamples = 89\nvalue = [7, 82]"] ;
467 -> 468 ;
469 [label="gini = 0.0\nsamples = 2\nvalue = [2, 0]"] ;
468 -> 469 ;
470 [label="X[10] <= 55.0\ngini = 0.108\nsamples = 87\nvalue = [5, 82]"] ;
468 -> 470 ;
471 [label="X[2] <= 7.58\ngini = 0.089\nsamples = 86\nvalue = [4, 82]"] ;
470 -> 471 ;
472 [label="X[6] <= 45890.0\ngini = 0.278\nsamples = 12\nvalue = [2, 10]"] ;
471 -> 472 ;
473 [label="gini = 0.0\nsamples = 10\nvalue = [0, 10]"] ;
472 -> 473 ;
474 [label="gini = 0.0\nsamples = 2\nvalue = [2, 0]"] ;
472 -> 474 ;
475 [label="X[10] <= 24.5\ngini = 0.053\nsamples = 74\nvalue = [2, 72]"] ;
471 -> 475 ;
476 [label="gini = 0.0\nsamples = 1\nvalue = [1, 0]"] ;
475 -> 476 ;
477 [label="X[10] <= 36.5\ngini = 0.027\nsamples = 73\nvalue = [1, 72]"] ;
475 -> 477 ;
478 [label="gini = 0.0\nsamples = 63\nvalue = [0, 63]"] ;
477 -> 478 ;
479 [label="X[3] <= 410.31\ngini = 0.18\nsamples = 10\nvalue = [1, 9]"] ;
477 -> 479 ;
480 [label="gini = 0.0\nsamples = 1\nvalue = [1, 0]"] ;
479 -> 480 ;
481 [label="gini = 0.0\nsamples = 9\nvalue = [0, 9]"] ;
479 -> 481 ;
482 [label="gini = 0.0\nsamples = 1\nvalue = [1, 0]"] ;
470 -> 482 ;
483 [label="gini = 0.0\nsamples = 1\nvalue = [1, 0]"] ;
467 -> 483 ;
484 [label="gini = 0.0\nsamples = 18\nvalue = [18, 0]"] ;
466 -> 484 ;
485 [label="X[5] <= 1.5\ngini = 0.132\nsamples = 773\nvalue = [718, 55]"] ;
401 -> 485 ;
486 [label="X[10] <= 29.5\ngini = 0.363\nsamples = 126\nvalue = [96, 30]"] ;
485 -> 486 ;
487 [label="X[2] <= 10.075\ngini = 0.462\nsamples = 83\nvalue = [53, 30]"] ;
486 -> 487 ;
488 [label="gini = 0.0\nsamples = 28\nvalue = [28, 0]"] ;
487 -> 488 ;
489 [label="X[0] <= 20025.0\ngini = 0.496\nsamples = 55\nvalue = [25, 30]"] ;
487 -> 489 ;
490 [label="X[4] <= 2.5\ngini = 0.444\nsamples = 45\nvalue = [15, 30]"] ;
489 -> 490 ;
491 [label="X[3] <= 389.99\ngini = 0.355\nsamples = 39\nvalue = [9, 30]"] ;
490 -> 491 ;
492 [label="gini = 0.0\nsamples = 3\nvalue = [3, 0]"] ;
491 -> 492 ;
493 [label="X[3] <= 588.6\ngini = 0.278\nsamples = 36\nvalue = [6, 30]"] ;
491 -> 493 ;
494 [label="X[0] <= 16900.0\ngini = 0.165\nsamples = 33\nvalue = [3, 30]"] ;
493 -> 494 ;
495 [label="gini = 0.0\nsamples = 2\nvalue = [2, 0]"] ;
494 -> 495 ;
496 [label="X[13] <= 135642.5\ngini = 0.062\nsamples = 31\nvalue = [1, 30]"] ;
494 -> 496 ;
497 [label="X[9] <= 11328.0\ngini = 0.198\nsamples = 9\nvalue = [1, 8]"] ;
496 -> 497 ;
498 [label="gini = 0.0\nsamples = 8\nvalue = [0, 8]"] ;
497 -> 498 ;
499 [label="gini = 0.0\nsamples = 1\nvalue = [1, 0]"] ;
497 -> 499 ;
500 [label="gini = 0.0\nsamples = 22\nvalue = [0, 22]"] ;
496 -> 500 ;
501 [label="gini = 0.0\nsamples = 3\nvalue = [3, 0]"] ;
493 -> 501 ;
502 [label="gini = 0.0\nsamples = 6\nvalue = [6, 0]"] ;
490 -> 502 ;
503 [label="gini = 0.0\nsamples = 10\nvalue = [10, 0]"] ;
489 -> 503 ;
504 [label="gini = 0.0\nsamples = 43\nvalue = [43, 0]"] ;
486 -> 504 ;
505 [label="X[6] <= 50037.5\ngini = 0.074\nsamples = 647\nvalue = [622, 25]"] ;
485 -> 505 ;
506 [label="X[2] <= 7.655\ngini = 0.327\nsamples = 68\nvalue = [54, 14]"] ;
505 -> 506 ;
507 [label="X[2] <= 7.555\ngini = 0.388\nsamples = 19\nvalue = [5, 14]"] ;
506 -> 507 ;
508 [label="gini = 0.0\nsamples = 5\nvalue = [5, 0]"] ;
507 -> 508 ;
509 [label="gini = 0.0\nsamples = 14\nvalue = [0, 14]"] ;
507 -> 509 ;
510 [label="gini = 0.0\nsamples = 49\nvalue = [49, 0]"] ;
506 -> 510 ;
511 [label="X[7] <= 7.5\ngini = 0.037\nsamples = 579\nvalue = [568, 11]"] ;
505 -> 511 ;
512 [label="X[3] <= 665.51\ngini = 0.253\nsamples = 74\nvalue = [63, 11]"] ;
511 -> 512 ;
513 [label="gini = 0.0\nsamples = 58\nvalue = [58, 0]"] ;
512 -> 513 ;
514 [label="X[13] <= 161205.5\ngini = 0.43\nsamples = 16\nvalue = [5, 11]"] ;
512 -> 514 ;
515 [label="gini = 0.0\nsamples = 11\nvalue = [0, 11]"] ;
514 -> 515 ;
516 [label="gini = 0.0\nsamples = 5\nvalue = [5, 0]"] ;
514 -> 516 ;
517 [label="gini = 0.0\nsamples = 505\nvalue = [505, 0]"] ;
511 -> 517 ;
518 [label="X[9] <= 23432.0\ngini = 0.471\nsamples = 227\nvalue = [141, 86]"] ;
400 -> 518 ;
519 [label="X[14] <= 0.5\ngini = 0.47\nsamples = 138\nvalue = [52, 86]"] ;
518 -> 519 ;
520 [label="X[9] <= 12182.5\ngini = 0.433\nsamples = 126\nvalue = [40, 86]"] ;
519 -> 520 ;
521 [label="X[6] <= 115214.0\ngini = 0.274\nsamples = 67\nvalue = [11, 56]"] ;
520 -> 521 ;
522 [label="X[0] <= 24500.0\ngini = 0.124\nsamples = 60\nvalue = [4, 56]"] ;
521 -> 522 ;
523 [label="gini = 0.0\nsamples = 2\nvalue = [2, 0]"] ;
522 -> 523 ;
524 [label="X[2] <= 12.405\ngini = 0.067\nsamples = 58\nvalue = [2, 56]"] ;
522 -> 524 ;
525 [label="X[3] <= 1088.56\ngini = 0.034\nsamples = 57\nvalue = [1, 56]"] ;
524 -> 525 ;
526 [label="gini = 0.0\nsamples = 56\nvalue = [0, 56]"] ;
525 -> 526 ;
527 [label="gini = 0.0\nsamples = 1\nvalue = [1, 0]"] ;
525 -> 527 ;
528 [label="gini = 0.0\nsamples = 1\nvalue = [1, 0]"] ;
524 -> 528 ;
529 [label="gini = 0.0\nsamples = 7\nvalue = [7, 0]"] ;
521 -> 529 ;
530 [label="X[10] <= 38.0\ngini = 0.5\nsamples = 59\nvalue = [29, 30]"] ;
520 -> 530 ;
531 [label="gini = 0.0\nsamples = 26\nvalue = [26, 0]"] ;
530 -> 531 ;
532 [label="X[9] <= 20961.0\ngini = 0.165\nsamples = 33\nvalue = [3, 30]"] ;
530 -> 532 ;
533 [label="gini = 0.0\nsamples = 2\nvalue = [2, 0]"] ;
532 -> 533 ;
534 [label="X[3] <= 814.8\ngini = 0.062\nsamples = 31\nvalue = [1, 30]"] ;
532 -> 534 ;
535 [label="gini = 0.0\nsamples = 1\nvalue = [1, 0]"] ;
534 -> 535 ;
536 [label="gini = 0.0\nsamples = 30\nvalue = [0, 30]"] ;
534 -> 536 ;
537 [label="gini = 0.0\nsamples = 12\nvalue = [12, 0]"] ;
519 -> 537 ;
538 [label="gini = 0.0\nsamples = 89\nvalue = [89, 0]"] ;
518 -> 538 ;
539 [label="X[9] <= 32528.0\ngini = 0.461\nsamples = 829\nvalue = [530, 299]"] ;
399 -> 539 ;
540 [label="X[10] <= 17.5\ngini = 0.488\nsamples = 709\nvalue = [410, 299]"] ;
539 -> 540 ;
541 [label="gini = 0.0\nsamples = 75\nvalue = [75, 0]"] ;
540 -> 541 ;
542 [label="X[3] <= 604.085\ngini = 0.498\nsamples = 634\nvalue = [335, 299]"] ;
540 -> 542 ;
543 [label="X[9] <= 11269.5\ngini = 0.496\nsamples = 486\nvalue = [220, 266]"] ;
542 -> 543 ;
544 [label="X[12] <= 4066.0\ngini = 0.367\nsamples = 132\nvalue = [100, 32]"] ;
543 -> 544 ;
545 [label="X[7] <= 22.5\ngini = 0.26\nsamples = 117\nvalue = [99, 18]"] ;
544 -> 545 ;
546 [label="gini = 0.0\nsamples = 94\nvalue = [94, 0]"] ;
545 -> 546 ;
547 [label="X[5] <= 5.0\ngini = 0.34\nsamples = 23\nvalue = [5, 18]"] ;
545 -> 547 ;
548 [label="gini = 0.0\nsamples = 5\nvalue = [5, 0]"] ;
547 -> 548 ;
549 [label="gini = 0.0\nsamples = 18\nvalue = [0, 18]"] ;
547 -> 549 ;
550 [label="X[6] <= 71000.0\ngini = 0.124\nsamples = 15\nvalue = [1, 14]"] ;
544 -> 550 ;
551 [label="gini = 0.0\nsamples = 14\nvalue = [0, 14]"] ;
550 -> 551 ;
552 [label="gini = 0.0\nsamples = 1\nvalue = [1, 0]"] ;
550 -> 552 ;
553 [label="X[6] <= 45945.0\ngini = 0.448\nsamples = 354\nvalue = [120, 234]"] ;
543 -> 553 ;
554 [label="gini = 0.0\nsamples = 23\nvalue = [23, 0]"] ;
553 -> 554 ;
555 [label="X[2] <= 7.02\ngini = 0.414\nsamples = 331\nvalue = [97, 234]"] ;
553 -> 555 ;
556 [label="gini = 0.0\nsamples = 13\nvalue = [13, 0]"] ;
555 -> 556 ;
557 [label="X[8] <= 0.5\ngini = 0.389\nsamples = 318\nvalue = [84, 234]"] ;
555 -> 557 ;
558 [label="X[13] <= 105590.5\ngini = 0.365\nsamples = 308\nvalue = [74, 234]"] ;
557 -> 558 ;
559 [label="gini = 0.0\nsamples = 6\nvalue = [6, 0]"] ;
558 -> 559 ;
560 [label="X[6] <= 95500.0\ngini = 0.349\nsamples = 302\nvalue = [68, 234]"] ;
558 -> 560 ;
561 [label="X[0] <= 16200.0\ngini = 0.302\nsamples = 270\nvalue = [50, 220]"] ;
560 -> 561 ;
562 [label="X[5] <= 3.5\ngini = 0.391\nsamples = 169\nvalue = [45, 124]"] ;
561 -> 562 ;
563 [label="gini = 0.0\nsamples = 15\nvalue = [15, 0]"] ;
562 -> 563 ;
564 [label="X[2] <= 12.205\ngini = 0.314\nsamples = 154\nvalue = [30, 124]"] ;
562 -> 564 ;
565 [label="X[3] <= 336.48\ngini = 0.264\nsamples = 147\nvalue = [23, 124]"] ;
564 -> 565 ;
566 [label="X[0] <= 11000.0\ngini = 0.153\nsamples = 120\nvalue = [10, 110]"] ;
565 -> 566 ;
567 [label="gini = 0.126\nsamples = 118\nvalue = [8, 110]"] ;
566 -> 567 ;
568 [label="gini = 0.0\nsamples = 2\nvalue = [2, 0]"] ;
566 -> 568 ;
569 [label="X[9] <= 21654.0\ngini = 0.499\nsamples = 27\nvalue = [13, 14]"] ;
565 -> 569 ;
570 [label="gini = 0.0\nsamples = 12\nvalue = [12, 0]"] ;
569 -> 570 ;
571 [label="gini = 0.124\nsamples = 15\nvalue = [1, 14]"] ;
569 -> 571 ;
572 [label="gini = 0.0\nsamples = 7\nvalue = [7, 0]"] ;
564 -> 572 ;
573 [label="X[10] <= 26.0\ngini = 0.094\nsamples = 101\nvalue = [5, 96]"] ;
561 -> 573 ;
574 [label="gini = 0.0\nsamples = 2\nvalue = [2, 0]"] ;
573 -> 574 ;
575 [label="X[0] <= 24925.0\ngini = 0.059\nsamples = 99\nvalue = [3, 96]"] ;
573 -> 575 ;
576 [label="X[10] <= 29.0\ngini = 0.04\nsamples = 98\nvalue = [2, 96]"] ;
575 -> 576 ;
577 [label="X[13] <= 137658.5\ngini = 0.188\nsamples = 19\nvalue = [2, 17]"] ;
576 -> 577 ;
578 [label="gini = 0.0\nsamples = 17\nvalue = [0, 17]"] ;
577 -> 578 ;
579 [label="gini = 0.0\nsamples = 2\nvalue = [2, 0]"] ;
577 -> 579 ;
580 [label="gini = 0.0\nsamples = 79\nvalue = [0, 79]"] ;
576 -> 580 ;
581 [label="gini = 0.0\nsamples = 1\nvalue = [1, 0]"] ;
575 -> 581 ;
582 [label="X[0] <= 13350.0\ngini = 0.492\nsamples = 32\nvalue = [18, 14]"] ;
560 -> 582 ;
583 [label="X[3] <= 343.78\ngini = 0.291\nsamples = 17\nvalue = [3, 14]"] ;
582 -> 583 ;
584 [label="gini = 0.0\nsamples = 3\nvalue = [3, 0]"] ;
583 -> 584 ;
585 [label="gini = 0.0\nsamples = 14\nvalue = [0, 14]"] ;
583 -> 585 ;
586 [label="gini = 0.0\nsamples = 15\nvalue = [15, 0]"] ;
582 -> 586 ;
587 [label="gini = 0.0\nsamples = 10\nvalue = [10, 0]"] ;
557 -> 587 ;
588 [label="X[3] <= 945.585\ngini = 0.347\nsamples = 148\nvalue = [115, 33]"] ;
542 -> 588 ;
589 [label="X[17] <= 0.5\ngini = 0.181\nsamples = 109\nvalue = [98, 11]"] ;
588 -> 589 ;
590 [label="X[6] <= 65000.0\ngini = 0.483\nsamples = 27\nvalue = [16, 11]"] ;
589 -> 590 ;
591 [label="X[6] <= 57500.0\ngini = 0.337\nsamples = 14\nvalue = [3, 11]"] ;
590 -> 591 ;
592 [label="gini = 0.0\nsamples = 3\nvalue = [3, 0]"] ;
591 -> 592 ;
593 [label="gini = 0.0\nsamples = 11\nvalue = [0, 11]"] ;
591 -> 593 ;
594 [label="gini = 0.0\nsamples = 13\nvalue = [13, 0]"] ;
590 -> 594 ;
595 [label="gini = 0.0\nsamples = 82\nvalue = [82, 0]"] ;
589 -> 595 ;
596 [label="X[3] <= 1041.645\ngini = 0.492\nsamples = 39\nvalue = [17, 22]"] ;
588 -> 596 ;
597 [label="X[2] <= 9.91\ngini = 0.302\nsamples = 27\nvalue = [5, 22]"] ;
596 -> 597 ;
598 [label="X[2] <= 8.785\ngini = 0.153\nsamples = 24\nvalue = [2, 22]"] ;
597 -> 598 ;
599 [label="gini = 0.0\nsamples = 1\nvalue = [1, 0]"] ;
598 -> 599 ;
600 [label="X[6] <= 97028.0\ngini = 0.083\nsamples = 23\nvalue = [1, 22]"] ;
598 -> 600 ;
601 [label="gini = 0.0\nsamples = 1\nvalue = [1, 0]"] ;
600 -> 601 ;
602 [label="gini = 0.0\nsamples = 22\nvalue = [0, 22]"] ;
600 -> 602 ;
603 [label="gini = 0.0\nsamples = 3\nvalue = [3, 0]"] ;
597 -> 603 ;
604 [label="gini = 0.0\nsamples = 12\nvalue = [12, 0]"] ;
596 -> 604 ;
605 [label="gini = 0.0\nsamples = 120\nvalue = [120, 0]"] ;
539 -> 605 ;
606 [label="X[10] <= 21.5\ngini = 0.317\nsamples = 91\nvalue = [18, 73]"] ;
398 -> 606 ;
607 [label="gini = 0.0\nsamples = 7\nvalue = [7, 0]"] ;
606 -> 607 ;
608 [label="X[6] <= 66500.0\ngini = 0.228\nsamples = 84\nvalue = [11, 73]"] ;
606 -> 608 ;
609 [label="gini = 0.0\nsamples = 3\nvalue = [3, 0]"] ;
608 -> 609 ;
610 [label="X[3] <= 259.04\ngini = 0.178\nsamples = 81\nvalue = [8, 73]"] ;
608 -> 610 ;
611 [label="gini = 0.0\nsamples = 2\nvalue = [2, 0]"] ;
610 -> 611 ;
612 [label="X[21] <= 0.5\ngini = 0.14\nsamples = 79\nvalue = [6, 73]"] ;
610 -> 612 ;
613 [label="X[9] <= 6428.0\ngini = 0.12\nsamples = 78\nvalue = [5, 73]"] ;
612 -> 613 ;
614 [label="gini = 0.0\nsamples = 1\nvalue = [1, 0]"] ;
613 -> 614 ;
615 [label="X[10] <= 52.0\ngini = 0.098\nsamples = 77\nvalue = [4, 73]"] ;
613 -> 615 ;
616 [label="X[13] <= 329557.0\ngini = 0.076\nsamples = 76\nvalue = [3, 73]"] ;
615 -> 616 ;
617 [label="gini = 0.0\nsamples = 48\nvalue = [0, 48]"] ;
616 -> 617 ;
618 [label="X[13] <= 330951.0\ngini = 0.191\nsamples = 28\nvalue = [3, 25]"] ;
616 -> 618 ;
619 [label="gini = 0.0\nsamples = 3\nvalue = [3, 0]"] ;
618 -> 619 ;
620 [label="gini = 0.0\nsamples = 25\nvalue = [0, 25]"] ;
618 -> 620 ;
621 [label="gini = 0.0\nsamples = 1\nvalue = [1, 0]"] ;
615 -> 621 ;
622 [label="gini = 0.0\nsamples = 1\nvalue = [1, 0]"] ;
612 -> 622 ;
623 [label="X[9] <= 280844.5\ngini = 0.136\nsamples = 834\nvalue = [773, 61]"] ;
397 -> 623 ;
624 [label="X[5] <= 1.5\ngini = 0.105\nsamples = 813\nvalue = [768, 45]"] ;
623 -> 624 ;
625 [label="X[2] <= 11.6\ngini = 0.365\nsamples = 158\nvalue = [120, 38]"] ;
624 -> 625 ;
626 [label="X[6] <= 85500.0\ngini = 0.188\nsamples = 114\nvalue = [102, 12]"] ;
625 -> 626 ;
627 [label="X[13] <= 441593.0\ngini = 0.438\nsamples = 37\nvalue = [25, 12]"] ;
626 -> 627 ;
628 [label="gini = 0.0\nsamples = 23\nvalue = [23, 0]"] ;
627 -> 628 ;
629 [label="X[6] <= 82500.0\ngini = 0.245\nsamples = 14\nvalue = [2, 12]"] ;
627 -> 629 ;
630 [label="gini = 0.0\nsamples = 2\nvalue = [2, 0]"] ;
629 -> 630 ;
631 [label="gini = 0.0\nsamples = 12\nvalue = [0, 12]"] ;
629 -> 631 ;
632 [label="gini = 0.0\nsamples = 77\nvalue = [77, 0]"] ;
626 -> 632 ;
633 [label="X[15] <= 0.5\ngini = 0.483\nsamples = 44\nvalue = [18, 26]"] ;
625 -> 633 ;
634 [label="gini = 0.0\nsamples = 15\nvalue = [15, 0]"] ;
633 -> 634 ;
635 [label="X[1] <= 48.0\ngini = 0.185\nsamples = 29\nvalue = [3, 26]"] ;
633 -> 635 ;
636 [label="X[7] <= 11.0\ngini = 0.071\nsamples = 27\nvalue = [1, 26]"] ;
635 -> 636 ;
637 [label="gini = 0.0\nsamples = 1\nvalue = [1, 0]"] ;
636 -> 637 ;
638 [label="gini = 0.0\nsamples = 26\nvalue = [0, 26]"] ;
636 -> 638 ;
639 [label="gini = 0.0\nsamples = 2\nvalue = [2, 0]"] ;
635 -> 639 ;
640 [label="X[3] <= 1040.035\ngini = 0.021\nsamples = 655\nvalue = [648, 7]"] ;
624 -> 640 ;
641 [label="gini = 0.0\nsamples = 611\nvalue = [611, 0]"] ;
640 -> 641 ;
642 [label="X[3] <= 1050.905\ngini = 0.268\nsamples = 44\nvalue = [37, 7]"] ;
640 -> 642 ;
643 [label="X[10] <= 34.5\ngini = 0.219\nsamples = 8\nvalue = [1, 7]"] ;
642 -> 643 ;
644 [label="gini = 0.0\nsamples = 1\nvalue = [1, 0]"] ;
643 -> 644 ;
645 [label="gini = 0.0\nsamples = 7\nvalue = [0, 7]"] ;
643 -> 645 ;
646 [label="gini = 0.0\nsamples = 36\nvalue = [36, 0]"] ;
642 -> 646 ;
647 [label="X[14] <= 0.5\ngini = 0.363\nsamples = 21\nvalue = [5, 16]"] ;
623 -> 647 ;
648 [label="gini = 0.0\nsamples = 5\nvalue = [5, 0]"] ;
647 -> 648 ;
649 [label="gini = 0.0\nsamples = 16\nvalue = [0, 16]"] ;
647 -> 649 ;
650 [label="X[2] <= 18.46\ngini = 0.474\nsamples = 16554\nvalue = [6391, 10163]"] ;
0 -> 650 [labeldistance=2.5, labelangle=-45, headlabel="False"] ;
651 [label="X[6] <= 67544.0\ngini = 0.493\nsamples = 11200\nvalue = [4946, 6254]"] ;
650 -> 651 ;
652 [label="X[12] <= 101.0\ngini = 0.477\nsamples = 7531\nvalue = [2950, 4581]"] ;
651 -> 652 ;
653 [label="X[2] <= 14.04\ngini = 0.468\nsamples = 6981\nvalue = [2603, 4378]"] ;
652 -> 653 ;
654 [label="X[2] <= 13.985\ngini = 0.492\nsamples = 1921\nvalue = [841, 1080]"] ;
653 -> 654 ;
655 [label="X[2] <= 13.145\ngini = 0.476\nsamples = 1752\nvalue = [686, 1066]"] ;
654 -> 655 ;
656 [label="X[9] <= 14900.0\ngini = 0.402\nsamples = 873\nvalue = [243, 630]"] ;
655 -> 656 ;
657 [label="X[7] <= 16.5\ngini = 0.357\nsamples = 722\nvalue = [168, 554]"] ;
656 -> 657 ;
658 [label="X[3] <= 90.125\ngini = 0.344\nsamples = 711\nvalue = [157, 554]"] ;
657 -> 658 ;
659 [label="gini = 0.0\nsamples = 8\nvalue = [8, 0]"] ;
658 -> 659 ;
660 [label="X[13] <= 5201.5\ngini = 0.334\nsamples = 703\nvalue = [149, 554]"] ;
658 -> 660 ;
661 [label="gini = 0.0\nsamples = 7\nvalue = [7, 0]"] ;
660 -> 661 ;
662 [label="X[3] <= 151.315\ngini = 0.325\nsamples = 696\nvalue = [142, 554]"] ;
660 -> 662 ;
663 [label="X[7] <= 5.5\ngini = 0.129\nsamples = 130\nvalue = [9, 121]"] ;
662 -> 663 ;
664 [label="gini = 0.0\nsamples = 3\nvalue = [3, 0]"] ;
663 -> 664 ;
665 [label="X[9] <= 12035.0\ngini = 0.09\nsamples = 127\nvalue = [6, 121]"] ;
663 -> 665 ;
666 [label="X[10] <= 8.0\ngini = 0.062\nsamples = 125\nvalue = [4, 121]"] ;
665 -> 666 ;
667 [label="gini = 0.0\nsamples = 1\nvalue = [1, 0]"] ;
666 -> 667 ;
668 [label="X[20] <= 0.5\ngini = 0.047\nsamples = 124\nvalue = [3, 121]"] ;
666 -> 668 ;
669 [label="X[10] <= 29.0\ngini = 0.032\nsamples = 123\nvalue = [2, 121]"] ;
668 -> 669 ;
670 [label="X[16] <= 0.5\ngini = 0.016\nsamples = 122\nvalue = [1, 121]"] ;
669 -> 670 ;
671 [label="gini = 0.0\nsamples = 106\nvalue = [0, 106]"] ;
670 -> 671 ;
672 [label="X[0] <= 3100.0\ngini = 0.117\nsamples = 16\nvalue = [1, 15]"] ;
670 -> 672 ;
673 [label="gini = 0.0\nsamples = 1\nvalue = [1, 0]"] ;
672 -> 673 ;
674 [label="gini = 0.0\nsamples = 15\nvalue = [0, 15]"] ;
672 -> 674 ;
675 [label="gini = 0.0\nsamples = 1\nvalue = [1, 0]"] ;
669 -> 675 ;
676 [label="gini = 0.0\nsamples = 1\nvalue = [1, 0]"] ;
668 -> 676 ;
677 [label="gini = 0.0\nsamples = 2\nvalue = [2, 0]"] ;
665 -> 677 ;
678 [label="X[3] <= 333.19\ngini = 0.36\nsamples = 566\nvalue = [133, 433]"] ;
662 -> 678 ;
679 [label="X[0] <= 8200.0\ngini = 0.47\nsamples = 204\nvalue = [77, 127]"] ;
678 -> 679 ;
680 [label="X[10] <= 14.5\ngini = 0.394\nsamples = 174\nvalue = [47, 127]"] ;
679 -> 680 ;
681 [label="gini = 0.0\nsamples = 13\nvalue = [13, 0]"] ;
680 -> 681 ;
682 [label="X[7] <= 13.5\ngini = 0.333\nsamples = 161\nvalue = [34, 127]"] ;
680 -> 682 ;
683 [label="X[6] <= 51500.0\ngini = 0.296\nsamples = 155\nvalue = [28, 127]"] ;
682 -> 683 ;
684 [label="X[3] <= 167.75\ngini = 0.226\nsamples = 146\nvalue = [19, 127]"] ;
683 -> 684 ;
685 [label="gini = 0.0\nsamples = 2\nvalue = [2, 0]"] ;
684 -> 685 ;
686 [label="X[9] <= 10447.5\ngini = 0.208\nsamples = 144\nvalue = [17, 127]"] ;
684 -> 686 ;
687 [label="gini = 0.179\nsamples = 141\nvalue = [14, 127]"] ;
686 -> 687 ;
688 [label="gini = 0.0\nsamples = 3\nvalue = [3, 0]"] ;
686 -> 688 ;
689 [label="gini = 0.0\nsamples = 9\nvalue = [9, 0]"] ;
683 -> 689 ;
690 [label="gini = 0.0\nsamples = 6\nvalue = [6, 0]"] ;
682 -> 690 ;
691 [label="gini = 0.0\nsamples = 30\nvalue = [30, 0]"] ;
679 -> 691 ;
692 [label="X[9] <= 7895.5\ngini = 0.262\nsamples = 362\nvalue = [56, 306]"] ;
678 -> 692 ;
693 [label="X[2] <= 12.93\ngini = 0.156\nsamples = 164\nvalue = [14, 150]"] ;
692 -> 693 ;
694 [label="gini = 0.0\nsamples = 2\nvalue = [2, 0]"] ;
693 -> 694 ;
695 [label="X[6] <= 36000.0\ngini = 0.137\nsamples = 162\nvalue = [12, 150]"] ;
693 -> 695 ;
696 [label="gini = 0.0\nsamples = 2\nvalue = [2, 0]"] ;
695 -> 696 ;
697 [label="X[9] <= 3314.5\ngini = 0.117\nsamples = 160\nvalue = [10, 150]"] ;
695 -> 697 ;
698 [label="X[0] <= 28550.0\ngini = 0.401\nsamples = 18\nvalue = [5, 13]"] ;
697 -> 698 ;
699 [label="gini = 0.0\nsamples = 5\nvalue = [5, 0]"] ;
698 -> 699 ;
700 [label="gini = 0.0\nsamples = 13\nvalue = [0, 13]"] ;
698 -> 700 ;
701 [label="X[12] <= 33.5\ngini = 0.068\nsamples = 142\nvalue = [5, 137]"] ;
697 -> 701 ;
702 [label="X[13] <= 17207.0\ngini = 0.055\nsamples = 141\nvalue = [4, 137]"] ;
701 -> 702 ;
703 [label="gini = 0.185\nsamples = 29\nvalue = [3, 26]"] ;
702 -> 703 ;
704 [label="gini = 0.018\nsamples = 112\nvalue = [1, 111]"] ;
702 -> 704 ;
705 [label="gini = 0.0\nsamples = 1\nvalue = [1, 0]"] ;
701 -> 705 ;
706 [label="X[3] <= 522.08\ngini = 0.334\nsamples = 198\nvalue = [42, 156]"] ;
692 -> 706 ;
707 [label="X[13] <= 189661.0\ngini = 0.299\nsamples = 191\nvalue = [35, 156]"] ;
706 -> 707 ;
708 [label="X[9] <= 10299.5\ngini = 0.271\nsamples = 186\nvalue = [30, 156]"] ;
707 -> 708 ;
709 [label="X[5] <= 9.5\ngini = 0.491\nsamples = 23\nvalue = [13, 10]"] ;
708 -> 709 ;
710 [label="gini = 0.0\nsamples = 13\nvalue = [13, 0]"] ;
709 -> 710 ;
711 [label="gini = 0.0\nsamples = 10\nvalue = [0, 10]"] ;
709 -> 711 ;
712 [label="X[5] <= 4.5\ngini = 0.187\nsamples = 163\nvalue = [17, 146]"] ;
708 -> 712 ;
713 [label="X[6] <= 31000.0\ngini = 0.369\nsamples = 45\nvalue = [11, 34]"] ;
712 -> 713 ;
714 [label="gini = 0.056\nsamples = 35\nvalue = [1, 34]"] ;
713 -> 714 ;
715 [label="gini = 0.0\nsamples = 10\nvalue = [10, 0]"] ;
713 -> 715 ;
716 [label="X[0] <= 16500.0\ngini = 0.097\nsamples = 118\nvalue = [6, 112]"] ;
712 -> 716 ;
717 [label="gini = 0.082\nsamples = 117\nvalue = [5, 112]"] ;
716 -> 717 ;
718 [label="gini = 0.0\nsamples = 1\nvalue = [1, 0]"] ;
716 -> 718 ;
719 [label="gini = 0.0\nsamples = 5\nvalue = [5, 0]"] ;
707 -> 719 ;
720 [label="gini = 0.0\nsamples = 7\nvalue = [7, 0]"] ;
706 -> 720 ;
721 [label="gini = 0.0\nsamples = 11\nvalue = [11, 0]"] ;
657 -> 721 ;
722 [label="X[1] <= 48.0\ngini = 0.5\nsamples = 151\nvalue = [75, 76]"] ;
656 -> 722 ;
723 [label="X[10] <= 11.0\ngini = 0.256\nsamples = 73\nvalue = [62, 11]"] ;
722 -> 723 ;
724 [label="X[20] <= 0.5\ngini = 0.26\nsamples = 13\nvalue = [2, 11]"] ;
723 -> 724 ;
725 [label="gini = 0.0\nsamples = 2\nvalue = [2, 0]"] ;
724 -> 725 ;
726 [label="gini = 0.0\nsamples = 11\nvalue = [0, 11]"] ;
724 -> 726 ;
727 [label="gini = 0.0\nsamples = 60\nvalue = [60, 0]"] ;
723 -> 727 ;
728 [label="X[14] <= 0.5\ngini = 0.278\nsamples = 78\nvalue = [13, 65]"] ;
722 -> 728 ;
729 [label="X[0] <= 24187.5\ngini = 0.231\nsamples = 75\nvalue = [10, 65]"] ;
728 -> 729 ;
730 [label="X[5] <= 2.5\ngini = 0.381\nsamples = 39\nvalue = [10, 29]"] ;
729 -> 730 ;
731 [label="X[2] <= 13.02\ngini = 0.121\nsamples = 31\nvalue = [2, 29]"] ;
730 -> 731 ;
732 [label="X[13] <= 100316.25\ngini = 0.064\nsamples = 30\nvalue = [1, 29]"] ;
731 -> 732 ;
733 [label="gini = 0.0\nsamples = 29\nvalue = [0, 29]"] ;
732 -> 733 ;
734 [label="gini = 0.0\nsamples = 1\nvalue = [1, 0]"] ;
732 -> 734 ;
735 [label="gini = 0.0\nsamples = 1\nvalue = [1, 0]"] ;
731 -> 735 ;
736 [label="gini = 0.0\nsamples = 8\nvalue = [8, 0]"] ;
730 -> 736 ;
737 [label="gini = 0.0\nsamples = 36\nvalue = [0, 36]"] ;
729 -> 737 ;
738 [label="gini = 0.0\nsamples = 3\nvalue = [3, 0]"] ;
728 -> 738 ;
739 [label="X[2] <= 13.34\ngini = 0.5\nsamples = 879\nvalue = [443, 436]"] ;
655 -> 739 ;
740 [label="gini = 0.0\nsamples = 171\nvalue = [171, 0]"] ;
739 -> 740 ;
741 [label="X[2] <= 13.675\ngini = 0.473\nsamples = 708\nvalue = [272, 436]"] ;
739 -> 741 ;
742 [label="X[7] <= 11.5\ngini = 0.5\nsamples = 390\nvalue = [198, 192]"] ;
741 -> 742 ;
743 [label="X[5] <= 0.5\ngini = 0.487\nsamples = 330\nvalue = [138, 192]"] ;
742 -> 743 ;
744 [label="X[0] <= 14500.0\ngini = 0.316\nsamples = 137\nvalue = [27, 110]"] ;
743 -> 744 ;
745 [label="X[2] <= 13.59\ngini = 0.444\nsamples = 69\nvalue = [23, 46]"] ;
744 -> 745 ;
746 [label="X[16] <= 0.5\ngini = 0.252\nsamples = 54\nvalue = [8, 46]"] ;
745 -> 746 ;
747 [label="X[0] <= 9725.0\ngini = 0.147\nsamples = 50\nvalue = [4, 46]"] ;
746 -> 747 ;
748 [label="X[6] <= 34000.0\ngini = 0.08\nsamples = 48\nvalue = [2, 46]"] ;
747 -> 748 ;
749 [label="gini = 0.0\nsamples = 30\nvalue = [0, 30]"] ;
748 -> 749 ;
750 [label="X[3] <= 251.035\ngini = 0.198\nsamples = 18\nvalue = [2, 16]"] ;
748 -> 750 ;
751 [label="gini = 0.0\nsamples = 2\nvalue = [2, 0]"] ;
750 -> 751 ;
752 [label="gini = 0.0\nsamples = 16\nvalue = [0, 16]"] ;
750 -> 752 ;
753 [label="gini = 0.0\nsamples = 2\nvalue = [2, 0]"] ;
747 -> 753 ;
754 [label="gini = 0.0\nsamples = 4\nvalue = [4, 0]"] ;
746 -> 754 ;
755 [label="gini = 0.0\nsamples = 15\nvalue = [15, 0]"] ;
745 -> 755 ;
756 [label="X[0] <= 20362.5\ngini = 0.111\nsamples = 68\nvalue = [4, 64]"] ;
744 -> 756 ;
757 [label="X[13] <= 134408.5\ngini = 0.059\nsamples = 66\nvalue = [2, 64]"] ;
756 -> 757 ;
758 [label="gini = 0.0\nsamples = 64\nvalue = [0, 64]"] ;
757 -> 758 ;
759 [label="gini = 0.0\nsamples = 2\nvalue = [2, 0]"] ;
757 -> 759 ;
760 [label="gini = 0.0\nsamples = 2\nvalue = [2, 0]"] ;
756 -> 760 ;
761 [label="X[0] <= 17962.5\ngini = 0.489\nsamples = 193\nvalue = [111, 82]"] ;
743 -> 761 ;
762 [label="X[0] <= 7062.5\ngini = 0.396\nsamples = 136\nvalue = [99, 37]"] ;
761 -> 762 ;
763 [label="X[3] <= 188.35\ngini = 0.5\nsamples = 75\nvalue = [38, 37]"] ;
762 -> 763 ;
764 [label="gini = 0.0\nsamples = 26\nvalue = [26, 0]"] ;
763 -> 764 ;
765 [label="X[2] <= 13.59\ngini = 0.37\nsamples = 49\nvalue = [12, 37]"] ;
763 -> 765 ;
766 [label="gini = 0.0\nsamples = 5\nvalue = [5, 0]"] ;
765 -> 766 ;
767 [label="X[5] <= 2.5\ngini = 0.268\nsamples = 44\nvalue = [7, 37]"] ;
765 -> 767 ;
768 [label="gini = 0.0\nsamples = 4\nvalue = [4, 0]"] ;
767 -> 768 ;
769 [label="X[5] <= 9.5\ngini = 0.139\nsamples = 40\nvalue = [3, 37]"] ;
767 -> 769 ;
770 [label="X[9] <= 8496.5\ngini = 0.051\nsamples = 38\nvalue = [1, 37]"] ;
769 -> 770 ;
771 [label="gini = 0.0\nsamples = 37\nvalue = [0, 37]"] ;
770 -> 771 ;
772 [label="gini = 0.0\nsamples = 1\nvalue = [1, 0]"] ;
770 -> 772 ;
773 [label="gini = 0.0\nsamples = 2\nvalue = [2, 0]"] ;
769 -> 773 ;
774 [label="gini = 0.0\nsamples = 61\nvalue = [61, 0]"] ;
762 -> 774 ;
775 [label="X[9] <= 16767.5\ngini = 0.332\nsamples = 57\nvalue = [12, 45]"] ;
761 -> 775 ;
776 [label="X[3] <= 624.87\ngini = 0.15\nsamples = 49\nvalue = [4, 45]"] ;
775 -> 776 ;
777 [label="X[5] <= 2.0\ngini = 0.043\nsamples = 46\nvalue = [1, 45]"] ;
776 -> 777 ;
778 [label="gini = 0.0\nsamples = 1\nvalue = [1, 0]"] ;
777 -> 778 ;
779 [label="gini = 0.0\nsamples = 45\nvalue = [0, 45]"] ;
777 -> 779 ;
780 [label="gini = 0.0\nsamples = 3\nvalue = [3, 0]"] ;
776 -> 780 ;
781 [label="gini = 0.0\nsamples = 8\nvalue = [8, 0]"] ;
775 -> 781 ;
782 [label="gini = 0.0\nsamples = 60\nvalue = [60, 0]"] ;
742 -> 782 ;
783 [label="X[10] <= 10.5\ngini = 0.357\nsamples = 318\nvalue = [74, 244]"] ;
741 -> 783 ;
784 [label="X[16] <= 0.5\ngini = 0.444\nsamples = 27\nvalue = [18, 9]"] ;
783 -> 784 ;
785 [label="gini = 0.0\nsamples = 15\nvalue = [15, 0]"] ;
784 -> 785 ;
786 [label="X[7] <= 5.0\ngini = 0.375\nsamples = 12\nvalue = [3, 9]"] ;
784 -> 786 ;
787 [label="gini = 0.0\nsamples = 3\nvalue = [3, 0]"] ;
786 -> 787 ;
788 [label="gini = 0.0\nsamples = 9\nvalue = [0, 9]"] ;
786 -> 788 ;
789 [label="X[9] <= 26421.0\ngini = 0.311\nsamples = 291\nvalue = [56, 235]"] ;
783 -> 789 ;
790 [label="X[7] <= 16.5\ngini = 0.293\nsamples = 286\nvalue = [51, 235]"] ;
789 -> 790 ;
791 [label="X[1] <= 48.0\ngini = 0.266\nsamples = 279\nvalue = [44, 235]"] ;
790 -> 791 ;
792 [label="X[6] <= 61000.0\ngini = 0.215\nsamples = 253\nvalue = [31, 222]"] ;
791 -> 792 ;
793 [label="X[9] <= 13730.0\ngini = 0.193\nsamples = 249\nvalue = [27, 222]"] ;
792 -> 793 ;
794 [label="X[6] <= 45155.0\ngini = 0.315\nsamples = 133\nvalue = [26, 107]"] ;
793 -> 794 ;
795 [label="X[2] <= 13.89\ngini = 0.247\nsamples = 125\nvalue = [18, 107]"] ;
794 -> 795 ;
796 [label="gini = 0.0\nsamples = 5\nvalue = [5, 0]"] ;
795 -> 796 ;
797 [label="X[12] <= 32.0\ngini = 0.193\nsamples = 120\nvalue = [13, 107]"] ;
795 -> 797 ;
798 [label="X[20] <= 0.5\ngini = 0.156\nsamples = 117\nvalue = [10, 107]"] ;
797 -> 798 ;
799 [label="gini = 0.115\nsamples = 114\nvalue = [7, 107]"] ;
798 -> 799 ;
800 [label="gini = 0.0\nsamples = 3\nvalue = [3, 0]"] ;
798 -> 800 ;
801 [label="gini = 0.0\nsamples = 3\nvalue = [3, 0]"] ;
797 -> 801 ;
802 [label="gini = 0.0\nsamples = 8\nvalue = [8, 0]"] ;
794 -> 802 ;
803 [label="X[7] <= 10.5\ngini = 0.017\nsamples = 116\nvalue = [1, 115]"] ;
793 -> 803 ;
804 [label="X[5] <= 7.5\ngini = 0.083\nsamples = 23\nvalue = [1, 22]"] ;
803 -> 804 ;
805 [label="gini = 0.0\nsamples = 1\nvalue = [1, 0]"] ;
804 -> 805 ;
806 [label="gini = 0.0\nsamples = 22\nvalue = [0, 22]"] ;
804 -> 806 ;
807 [label="gini = 0.0\nsamples = 93\nvalue = [0, 93]"] ;
803 -> 807 ;
808 [label="gini = 0.0\nsamples = 4\nvalue = [4, 0]"] ;
792 -> 808 ;
809 [label="X[13] <= 21449.0\ngini = 0.5\nsamples = 26\nvalue = [13, 13]"] ;
791 -> 809 ;
810 [label="X[9] <= 18407.5\ngini = 0.305\nsamples = 16\nvalue = [3, 13]"] ;
809 -> 810 ;
811 [label="gini = 0.0\nsamples = 3\nvalue = [3, 0]"] ;
810 -> 811 ;
812 [label="gini = 0.0\nsamples = 13\nvalue = [0, 13]"] ;
810 -> 812 ;
813 [label="gini = 0.0\nsamples = 10\nvalue = [10, 0]"] ;
809 -> 813 ;
814 [label="gini = 0.0\nsamples = 7\nvalue = [7, 0]"] ;
790 -> 814 ;
815 [label="gini = 0.0\nsamples = 5\nvalue = [5, 0]"] ;
789 -> 815 ;
816 [label="X[0] <= 19650.0\ngini = 0.152\nsamples = 169\nvalue = [155, 14]"] ;
654 -> 816 ;
817 [label="gini = 0.0\nsamples = 135\nvalue = [135, 0]"] ;
816 -> 817 ;
818 [label="X[6] <= 41162.0\ngini = 0.484\nsamples = 34\nvalue = [20, 14]"] ;
816 -> 818 ;
819 [label="gini = 0.0\nsamples = 14\nvalue = [0, 14]"] ;
818 -> 819 ;
820 [label="gini = 0.0\nsamples = 20\nvalue = [20, 0]"] ;
818 -> 820 ;
821 [label="X[4] <= 3.5\ngini = 0.454\nsamples = 5060\nvalue = [1762, 3298]"] ;
653 -> 821 ;
822 [label="X[2] <= 15.29\ngini = 0.406\nsamples = 2779\nvalue = [786, 1993]"] ;
821 -> 822 ;
823 [label="X[13] <= 11854.5\ngini = 0.453\nsamples = 1482\nvalue = [515, 967]"] ;
822 -> 823 ;
824 [label="X[9] <= 5190.0\ngini = 0.424\nsamples = 105\nvalue = [73, 32]"] ;
823 -> 824 ;
825 [label="X[9] <= 4639.5\ngini = 0.499\nsamples = 67\nvalue = [35, 32]"] ;
824 -> 825 ;
826 [label="X[13] <= 9873.5\ngini = 0.375\nsamples = 40\nvalue = [30, 10]"] ;
825 -> 826 ;
827 [label="gini = 0.0\nsamples = 28\nvalue = [28, 0]"] ;
826 -> 827 ;
828 [label="X[2] <= 14.475\ngini = 0.278\nsamples = 12\nvalue = [2, 10]"] ;
826 -> 828 ;
829 [label="gini = 0.0\nsamples = 10\nvalue = [0, 10]"] ;
828 -> 829 ;
830 [label="gini = 0.0\nsamples = 2\nvalue = [2, 0]"] ;
828 -> 830 ;
831 [label="X[15] <= 0.5\ngini = 0.302\nsamples = 27\nvalue = [5, 22]"] ;
825 -> 831 ;
832 [label="gini = 0.0\nsamples = 5\nvalue = [5, 0]"] ;
831 -> 832 ;
833 [label="gini = 0.0\nsamples = 22\nvalue = [0, 22]"] ;
831 -> 833 ;
834 [label="gini = 0.0\nsamples = 38\nvalue = [38, 0]"] ;
824 -> 834 ;
835 [label="X[10] <= 36.5\ngini = 0.436\nsamples = 1377\nvalue = [442, 935]"] ;
823 -> 835 ;
836 [label="X[3] <= 491.93\ngini = 0.416\nsamples = 1327\nvalue = [392, 935]"] ;
835 -> 836 ;
837 [label="X[13] <= 22572.0\ngini = 0.448\nsamples = 974\nvalue = [330, 644]"] ;
836 -> 837 ;
838 [label="X[1] <= 48.0\ngini = 0.295\nsamples = 312\nvalue = [56, 256]"] ;
837 -> 838 ;
839 [label="X[20] <= 0.5\ngini = 0.258\nsamples = 302\nvalue = [46, 256]"] ;
838 -> 839 ;
840 [label="X[10] <= 13.5\ngini = 0.242\nsamples = 298\nvalue = [42, 256]"] ;
839 -> 840 ;
841 [label="X[5] <= 4.5\ngini = 0.433\nsamples = 63\nvalue = [20, 43]"] ;
840 -> 841 ;
842 [label="gini = 0.0\nsamples = 11\nvalue = [11, 0]"] ;
841 -> 842 ;
843 [label="X[10] <= 10.5\ngini = 0.286\nsamples = 52\nvalue = [9, 43]"] ;
841 -> 843 ;
844 [label="X[0] <= 10825.0\ngini = 0.156\nsamples = 47\nvalue = [4, 43]"] ;
843 -> 844 ;
845 [label="X[13] <= 20319.0\ngini = 0.085\nsamples = 45\nvalue = [2, 43]"] ;
844 -> 845 ;
846 [label="X[7] <= 3.5\ngini = 0.044\nsamples = 44\nvalue = [1, 43]"] ;
845 -> 846 ;
847 [label="gini = 0.0\nsamples = 1\nvalue = [1, 0]"] ;
846 -> 847 ;
848 [label="gini = 0.0\nsamples = 43\nvalue = [0, 43]"] ;
846 -> 848 ;
849 [label="gini = 0.0\nsamples = 1\nvalue = [1, 0]"] ;
845 -> 849 ;
850 [label="gini = 0.0\nsamples = 2\nvalue = [2, 0]"] ;
844 -> 850 ;
851 [label="gini = 0.0\nsamples = 5\nvalue = [5, 0]"] ;
843 -> 851 ;
852 [label="X[6] <= 57000.0\ngini = 0.17\nsamples = 235\nvalue = [22, 213]"] ;
840 -> 852 ;
853 [label="X[12] <= 33.5\ngini = 0.137\nsamples = 230\nvalue = [17, 213]"] ;
852 -> 853 ;
854 [label="X[6] <= 41732.0\ngini = 0.123\nsamples = 228\nvalue = [15, 213]"] ;
853 -> 854 ;
855 [label="X[10] <= 15.5\ngini = 0.084\nsamples = 205\nvalue = [9, 196]"] ;
854 -> 855 ;
856 [label="gini = 0.0\nsamples = 1\nvalue = [1, 0]"] ;
855 -> 856 ;
857 [label="X[3] <= 178.22\ngini = 0.075\nsamples = 204\nvalue = [8, 196]"] ;
855 -> 857 ;
858 [label="gini = 0.355\nsamples = 13\nvalue = [3, 10]"] ;
857 -> 858 ;
859 [label="gini = 0.051\nsamples = 191\nvalue = [5, 186]"] ;
857 -> 859 ;
860 [label="X[4] <= 2.5\ngini = 0.386\nsamples = 23\nvalue = [6, 17]"] ;
854 -> 860 ;
861 [label="gini = 0.0\nsamples = 17\nvalue = [0, 17]"] ;
860 -> 861 ;
862 [label="gini = 0.0\nsamples = 6\nvalue = [6, 0]"] ;
860 -> 862 ;
863 [label="gini = 0.0\nsamples = 2\nvalue = [2, 0]"] ;
853 -> 863 ;
864 [label="gini = 0.0\nsamples = 5\nvalue = [5, 0]"] ;
852 -> 864 ;
865 [label="gini = 0.0\nsamples = 4\nvalue = [4, 0]"] ;
839 -> 865 ;
866 [label="gini = 0.0\nsamples = 10\nvalue = [10, 0]"] ;
838 -> 866 ;
867 [label="X[2] <= 14.475\ngini = 0.485\nsamples = 662\nvalue = [274, 388]"] ;
837 -> 867 ;
868 [label="X[6] <= 60240.0\ngini = 0.412\nsamples = 383\nvalue = [111, 272]"] ;
867 -> 868 ;
869 [label="X[10] <= 13.5\ngini = 0.376\nsamples = 363\nvalue = [91, 272]"] ;
868 -> 869 ;
870 [label="X[9] <= 1404.5\ngini = 0.473\nsamples = 39\nvalue = [24, 15]"] ;
869 -> 870 ;
871 [label="X[9] <= 1051.0\ngini = 0.208\nsamples = 17\nvalue = [2, 15]"] ;
870 -> 871 ;
872 [label="gini = 0.0\nsamples = 2\nvalue = [2, 0]"] ;
871 -> 872 ;
873 [label="gini = 0.0\nsamples = 15\nvalue = [0, 15]"] ;
871 -> 873 ;
874 [label="gini = 0.0\nsamples = 22\nvalue = [22, 0]"] ;
870 -> 874 ;
875 [label="X[13] <= 43919.5\ngini = 0.328\nsamples = 324\nvalue = [67, 257]"] ;
869 -> 875 ;
876 [label="X[10] <= 21.5\ngini = 0.47\nsamples = 82\nvalue = [31, 51]"] ;
875 -> 876 ;
877 [label="X[10] <= 16.5\ngini = 0.364\nsamples = 67\nvalue = [16, 51]"] ;
876 -> 877 ;
878 [label="gini = 0.0\nsamples = 6\nvalue = [6, 0]"] ;
877 -> 878 ;
879 [label="X[13] <= 39286.5\ngini = 0.274\nsamples = 61\nvalue = [10, 51]"] ;
877 -> 879 ;
880 [label="X[0] <= 12800.0\ngini = 0.188\nsamples = 57\nvalue = [6, 51]"] ;
879 -> 880 ;
881 [label="gini = 0.135\nsamples = 55\nvalue = [4, 51]"] ;
880 -> 881 ;
882 [label="gini = 0.0\nsamples = 2\nvalue = [2, 0]"] ;
880 -> 882 ;
883 [label="gini = 0.0\nsamples = 4\nvalue = [4, 0]"] ;
879 -> 883 ;
884 [label="gini = 0.0\nsamples = 15\nvalue = [15, 0]"] ;
876 -> 884 ;
885 [label="X[0] <= 3625.0\ngini = 0.253\nsamples = 242\nvalue = [36, 206]"] ;
875 -> 885 ;
886 [label="gini = 0.0\nsamples = 6\nvalue = [6, 0]"] ;
885 -> 886 ;
887 [label="X[9] <= 25598.0\ngini = 0.222\nsamples = 236\nvalue = [30, 206]"] ;
885 -> 887 ;
888 [label="X[8] <= 0.5\ngini = 0.193\nsamples = 231\nvalue = [25, 206]"] ;
887 -> 888 ;
889 [label="X[6] <= 52420.5\ngini = 0.159\nsamples = 218\nvalue = [19, 199]"] ;
888 -> 889 ;
890 [label="gini = 0.256\nsamples = 106\nvalue = [16, 90]"] ;
889 -> 890 ;
891 [label="gini = 0.052\nsamples = 112\nvalue = [3, 109]"] ;
889 -> 891 ;
892 [label="X[7] <= 16.5\ngini = 0.497\nsamples = 13\nvalue = [6, 7]"] ;
888 -> 892 ;
893 [label="gini = 0.0\nsamples = 5\nvalue = [5, 0]"] ;
892 -> 893 ;
894 [label="gini = 0.219\nsamples = 8\nvalue = [1, 7]"] ;
892 -> 894 ;
895 [label="gini = 0.0\nsamples = 5\nvalue = [5, 0]"] ;
887 -> 895 ;
896 [label="gini = 0.0\nsamples = 20\nvalue = [20, 0]"] ;
868 -> 896 ;
897 [label="X[6] <= 14750.0\ngini = 0.486\nsamples = 279\nvalue = [163, 116]"] ;
867 -> 897 ;
898 [label="X[9] <= 5051.0\ngini = 0.069\nsamples = 28\nvalue = [1, 27]"] ;
897 -> 898 ;
899 [label="gini = 0.0\nsamples = 27\nvalue = [0, 27]"] ;
898 -> 899 ;
900 [label="gini = 0.0\nsamples = 1\nvalue = [1, 0]"] ;
898 -> 900 ;
901 [label="X[7] <= 11.5\ngini = 0.458\nsamples = 251\nvalue = [162, 89]"] ;
897 -> 901 ;
902 [label="X[13] <= 299914.0\ngini = 0.259\nsamples = 131\nvalue = [111, 20]"] ;
901 -> 902 ;
903 [label="X[6] <= 32950.0\ngini = 0.19\nsamples = 122\nvalue = [109, 13]"] ;
902 -> 903 ;
904 [label="X[1] <= 48.0\ngini = 0.467\nsamples = 35\nvalue = [22, 13]"] ;
903 -> 904 ;
905 [label="gini = 0.0\nsamples = 19\nvalue = [19, 0]"] ;
904 -> 905 ;
906 [label="X[3] <= 242.88\ngini = 0.305\nsamples = 16\nvalue = [3, 13]"] ;
904 -> 906 ;
907 [label="gini = 0.0\nsamples = 2\nvalue = [2, 0]"] ;
906 -> 907 ;
908 [label="X[6] <= 30661.5\ngini = 0.133\nsamples = 14\nvalue = [1, 13]"] ;
906 -> 908 ;
909 [label="gini = 0.0\nsamples = 1\nvalue = [1, 0]"] ;
908 -> 909 ;
910 [label="gini = 0.0\nsamples = 13\nvalue = [0, 13]"] ;
908 -> 910 ;
911 [label="gini = 0.0\nsamples = 87\nvalue = [87, 0]"] ;
903 -> 911 ;
912 [label="X[13] <= 324826.5\ngini = 0.346\nsamples = 9\nvalue = [2, 7]"] ;
902 -> 912 ;
913 [label="gini = 0.0\nsamples = 7\nvalue = [0, 7]"] ;
912 -> 913 ;
914 [label="gini = 0.0\nsamples = 2\nvalue = [2, 0]"] ;
912 -> 914 ;
915 [label="X[5] <= 3.5\ngini = 0.489\nsamples = 120\nvalue = [51, 69]"] ;
901 -> 915 ;
916 [label="gini = 0.0\nsamples = 22\nvalue = [22, 0]"] ;
915 -> 916 ;
917 [label="X[7] <= 13.5\ngini = 0.417\nsamples = 98\nvalue = [29, 69]"] ;
915 -> 917 ;
918 [label="X[2] <= 14.985\ngini = 0.202\nsamples = 70\nvalue = [8, 62]"] ;
917 -> 918 ;
919 [label="X[6] <= 45750.0\ngini = 0.114\nsamples = 66\nvalue = [4, 62]"] ;
918 -> 919 ;
920 [label="gini = 0.0\nsamples = 3\nvalue = [3, 0]"] ;
919 -> 920 ;
921 [label="X[3] <= 102.96\ngini = 0.031\nsamples = 63\nvalue = [1, 62]"] ;
919 -> 921 ;
922 [label="gini = 0.0\nsamples = 1\nvalue = [1, 0]"] ;
921 -> 922 ;
923 [label="gini = 0.0\nsamples = 62\nvalue = [0, 62]"] ;
921 -> 923 ;
924 [label="gini = 0.0\nsamples = 4\nvalue = [4, 0]"] ;
918 -> 924 ;
925 [label="X[13] <= 27240.5\ngini = 0.375\nsamples = 28\nvalue = [21, 7]"] ;
917 -> 925 ;
926 [label="gini = 0.0\nsamples = 7\nvalue = [0, 7]"] ;
925 -> 926 ;
927 [label="gini = 0.0\nsamples = 21\nvalue = [21, 0]"] ;
925 -> 927 ;
928 [label="X[6] <= 41098.0\ngini = 0.29\nsamples = 353\nvalue = [62, 291]"] ;
836 -> 928 ;
929 [label="gini = 0.0\nsamples = 11\nvalue = [11, 0]"] ;
928 -> 929 ;
930 [label="X[10] <= 10.5\ngini = 0.254\nsamples = 342\nvalue = [51, 291]"] ;
928 -> 930 ;
931 [label="gini = 0.0\nsamples = 6\nvalue = [6, 0]"] ;
930 -> 931 ;
932 [label="X[13] <= 17296.5\ngini = 0.232\nsamples = 336\nvalue = [45, 291]"] ;
930 -> 932 ;
933 [label="gini = 0.0\nsamples = 5\nvalue = [5, 0]"] ;
932 -> 933 ;
934 [label="X[2] <= 15.225\ngini = 0.212\nsamples = 331\nvalue = [40, 291]"] ;
932 -> 934 ;
935 [label="X[0] <= 20937.5\ngini = 0.204\nsamples = 329\nvalue = [38, 291]"] ;
934 -> 935 ;
936 [label="X[9] <= 25292.5\ngini = 0.12\nsamples = 218\nvalue = [14, 204]"] ;
935 -> 936 ;
937 [label="X[0] <= 14487.5\ngini = 0.097\nsamples = 215\nvalue = [11, 204]"] ;
936 -> 937 ;
938 [label="gini = 0.0\nsamples = 1\nvalue = [1, 0]"] ;
937 -> 938 ;
939 [label="X[10] <= 33.0\ngini = 0.089\nsamples = 214\nvalue = [10, 204]"] ;
937 -> 939 ;
940 [label="X[7] <= 22.0\ngini = 0.081\nsamples = 213\nvalue = [9, 204]"] ;
939 -> 940 ;
941 [label="gini = 0.073\nsamples = 212\nvalue = [8, 204]"] ;
940 -> 941 ;
942 [label="gini = 0.0\nsamples = 1\nvalue = [1, 0]"] ;
940 -> 942 ;
943 [label="gini = 0.0\nsamples = 1\nvalue = [1, 0]"] ;
939 -> 943 ;
944 [label="gini = 0.0\nsamples = 3\nvalue = [3, 0]"] ;
936 -> 944 ;
945 [label="X[2] <= 14.645\ngini = 0.339\nsamples = 111\nvalue = [24, 87]"] ;
935 -> 945 ;
946 [label="X[13] <= 35838.0\ngini = 0.213\nsamples = 99\nvalue = [12, 87]"] ;
945 -> 946 ;
947 [label="gini = 0.0\nsamples = 4\nvalue = [4, 0]"] ;
946 -> 947 ;
948 [label="X[6] <= 53400.0\ngini = 0.154\nsamples = 95\nvalue = [8, 87]"] ;
946 -> 948 ;
949 [label="gini = 0.0\nsamples = 3\nvalue = [3, 0]"] ;
948 -> 949 ;
950 [label="X[9] <= 8510.0\ngini = 0.103\nsamples = 92\nvalue = [5, 87]"] ;
948 -> 950 ;
951 [label="gini = 0.0\nsamples = 2\nvalue = [2, 0]"] ;
950 -> 951 ;
952 [label="gini = 0.064\nsamples = 90\nvalue = [3, 87]"] ;
950 -> 952 ;
953 [label="gini = 0.0\nsamples = 12\nvalue = [12, 0]"] ;
945 -> 953 ;
954 [label="gini = 0.0\nsamples = 2\nvalue = [2, 0]"] ;
934 -> 954 ;
955 [label="gini = 0.0\nsamples = 50\nvalue = [50, 0]"] ;
835 -> 955 ;
956 [label="X[14] <= 0.5\ngini = 0.331\nsamples = 1297\nvalue = [271, 1026]"] ;
822 -> 956 ;
957 [label="X[6] <= 62112.5\ngini = 0.28\nsamples = 988\nvalue = [166, 822]"] ;
956 -> 957 ;
958 [label="X[13] <= 256133.5\ngini = 0.263\nsamples = 964\nvalue = [150, 814]"] ;
957 -> 958 ;
959 [label="X[13] <= 5646.0\ngini = 0.253\nsamples = 956\nvalue = [142, 814]"] ;
958 -> 959 ;
960 [label="gini = 0.0\nsamples = 6\nvalue = [6, 0]"] ;
959 -> 960 ;
961 [label="X[7] <= 22.5\ngini = 0.245\nsamples = 950\nvalue = [136, 814]"] ;
959 -> 961 ;
962 [label="X[10] <= 7.5\ngini = 0.24\nsamples = 946\nvalue = [132, 814]"] ;
961 -> 962 ;
963 [label="gini = 0.0\nsamples = 4\nvalue = [4, 0]"] ;
962 -> 963 ;
964 [label="X[6] <= 40765.625\ngini = 0.235\nsamples = 942\nvalue = [128, 814]"] ;
962 -> 964 ;
965 [label="X[9] <= 23166.0\ngini = 0.158\nsamples = 371\nvalue = [32, 339]"] ;
964 -> 965 ;
966 [label="X[2] <= 16.22\ngini = 0.145\nsamples = 368\nvalue = [29, 339]"] ;
965 -> 966 ;
967 [label="X[0] <= 13375.0\ngini = 0.088\nsamples = 304\nvalue = [14, 290]"] ;
966 -> 967 ;
968 [label="X[9] <= 17753.0\ngini = 0.07\nsamples = 301\nvalue = [11, 290]"] ;
967 -> 968 ;
969 [label="X[3] <= 406.24\ngini = 0.064\nsamples = 300\nvalue = [10, 290]"] ;
968 -> 969 ;
970 [label="gini = 0.058\nsamples = 299\nvalue = [9, 290]"] ;
969 -> 970 ;
971 [label="gini = 0.0\nsamples = 1\nvalue = [1, 0]"] ;
969 -> 971 ;
972 [label="gini = 0.0\nsamples = 1\nvalue = [1, 0]"] ;
968 -> 972 ;
973 [label="gini = 0.0\nsamples = 3\nvalue = [3, 0]"] ;
967 -> 973 ;
974 [label="X[0] <= 10612.5\ngini = 0.359\nsamples = 64\nvalue = [15, 49]"] ;
966 -> 974 ;
975 [label="gini = 0.0\nsamples = 9\nvalue = [9, 0]"] ;
974 -> 975 ;
976 [label="X[7] <= 10.0\ngini = 0.194\nsamples = 55\nvalue = [6, 49]"] ;
974 -> 976 ;
977 [label="X[9] <= 7791.0\ngini = 0.075\nsamples = 51\nvalue = [2, 49]"] ;
976 -> 977 ;
978 [label="gini = 0.0\nsamples = 2\nvalue = [2, 0]"] ;
977 -> 978 ;
979 [label="gini = 0.0\nsamples = 49\nvalue = [0, 49]"] ;
977 -> 979 ;
980 [label="gini = 0.0\nsamples = 4\nvalue = [4, 0]"] ;
976 -> 980 ;
981 [label="gini = 0.0\nsamples = 3\nvalue = [3, 0]"] ;
965 -> 981 ;
982 [label="X[10] <= 17.5\ngini = 0.28\nsamples = 571\nvalue = [96, 475]"] ;
964 -> 982 ;
983 [label="X[2] <= 17.025\ngini = 0.496\nsamples = 64\nvalue = [29, 35]"] ;
982 -> 983 ;
984 [label="X[3] <= 584.61\ngini = 0.298\nsamples = 33\nvalue = [27, 6]"] ;
983 -> 984 ;
985 [label="gini = 0.0\nsamples = 25\nvalue = [25, 0]"] ;
984 -> 985 ;
986 [label="X[3] <= 627.11\ngini = 0.375\nsamples = 8\nvalue = [2, 6]"] ;
984 -> 986 ;
987 [label="gini = 0.0\nsamples = 6\nvalue = [0, 6]"] ;
986 -> 987 ;
988 [label="gini = 0.0\nsamples = 2\nvalue = [2, 0]"] ;
986 -> 988 ;
989 [label="X[21] <= 0.5\ngini = 0.121\nsamples = 31\nvalue = [2, 29]"] ;
983 -> 989 ;
990 [label="gini = 0.0\nsamples = 29\nvalue = [0, 29]"] ;
989 -> 990 ;
991 [label="gini = 0.0\nsamples = 2\nvalue = [2, 0]"] ;
989 -> 991 ;
992 [label="X[9] <= 2809.5\ngini = 0.229\nsamples = 507\nvalue = [67, 440]"] ;
982 -> 992 ;
993 [label="gini = 0.0\nsamples = 4\nvalue = [4, 0]"] ;
992 -> 993 ;
994 [label="X[6] <= 41714.5\ngini = 0.219\nsamples = 503\nvalue = [63, 440]"] ;
992 -> 994 ;
995 [label="gini = 0.0\nsamples = 3\nvalue = [3, 0]"] ;
994 -> 995 ;
996 [label="X[7] <= 14.5\ngini = 0.211\nsamples = 500\nvalue = [60, 440]"] ;
994 -> 996 ;
997 [label="X[6] <= 61000.0\ngini = 0.182\nsamples = 416\nvalue = [42, 374]"] ;
996 -> 997 ;
998 [label="gini = 0.175\nsamples = 414\nvalue = [40, 374]"] ;
997 -> 998 ;
999 [label="gini = 0.0\nsamples = 2\nvalue = [2, 0]"] ;
997 -> 999 ;
1000 [label="X[17] <= 0.5\ngini = 0.337\nsamples = 84\nvalue = [18, 66]"] ;
996 -> 1000 ;
1001 [label="gini = 0.0\nsamples = 10\nvalue = [10, 0]"] ;
1000 -> 1001 ;
1002 [label="gini = 0.193\nsamples = 74\nvalue = [8, 66]"] ;
1000 -> 1002 ;
1003 [label="gini = 0.0\nsamples = 4\nvalue = [4, 0]"] ;
961 -> 1003 ;
1004 [label="gini = 0.0\nsamples = 8\nvalue = [8, 0]"] ;
958 -> 1004 ;
1005 [label="X[6] <= 66600.0\ngini = 0.444\nsamples = 24\nvalue = [16, 8]"] ;
957 -> 1005 ;
1006 [label="gini = 0.0\nsamples = 16\nvalue = [16, 0]"] ;
1005 -> 1006 ;
1007 [label="gini = 0.0\nsamples = 8\nvalue = [0, 8]"] ;
1005 -> 1007 ;
1008 [label="X[6] <= 32150.0\ngini = 0.449\nsamples = 309\nvalue = [105, 204]"] ;
956 -> 1008 ;
1009 [label="gini = 0.0\nsamples = 21\nvalue = [21, 0]"] ;
1008 -> 1009 ;
1010 [label="X[7] <= 12.5\ngini = 0.413\nsamples = 288\nvalue = [84, 204]"] ;
1008 -> 1010 ;
1011 [label="X[13] <= 17238.0\ngini = 0.361\nsamples = 250\nvalue = [59, 191]"] ;
1010 -> 1011 ;
1012 [label="X[6] <= 33650.0\ngini = 0.435\nsamples = 25\nvalue = [17, 8]"] ;
1011 -> 1012 ;
1013 [label="gini = 0.0\nsamples = 8\nvalue = [0, 8]"] ;
1012 -> 1013 ;
1014 [label="gini = 0.0\nsamples = 17\nvalue = [17, 0]"] ;
1012 -> 1014 ;
1015 [label="X[6] <= 42200.0\ngini = 0.304\nsamples = 225\nvalue = [42, 183]"] ;
1011 -> 1015 ;
1016 [label="X[9] <= 24762.0\ngini = 0.123\nsamples = 137\nvalue = [9, 128]"] ;
1015 -> 1016 ;
1017 [label="X[13] <= 86471.5\ngini = 0.111\nsamples = 136\nvalue = [8, 128]"] ;
1016 -> 1017 ;
1018 [label="X[7] <= 4.5\ngini = 0.059\nsamples = 132\nvalue = [4, 128]"] ;
1017 -> 1018 ;
1019 [label="gini = 0.0\nsamples = 1\nvalue = [1, 0]"] ;
1018 -> 1019 ;
1020 [label="X[10] <= 9.0\ngini = 0.045\nsamples = 131\nvalue = [3, 128]"] ;
1018 -> 1020 ;
1021 [label="gini = 0.0\nsamples = 1\nvalue = [1, 0]"] ;
1020 -> 1021 ;
1022 [label="X[10] <= 12.5\ngini = 0.03\nsamples = 130\nvalue = [2, 128]"] ;
1020 -> 1022 ;
1023 [label="X[3] <= 394.22\ngini = 0.114\nsamples = 33\nvalue = [2, 31]"] ;
1022 -> 1023 ;
1024 [label="X[21] <= 0.5\ngini = 0.061\nsamples = 32\nvalue = [1, 31]"] ;
1023 -> 1024 ;
1025 [label="gini = 0.0\nsamples = 1\nvalue = [1, 0]"] ;
1024 -> 1025 ;
1026 [label="gini = 0.0\nsamples = 31\nvalue = [0, 31]"] ;
1024 -> 1026 ;
1027 [label="gini = 0.0\nsamples = 1\nvalue = [1, 0]"] ;
1023 -> 1027 ;
1028 [label="gini = 0.0\nsamples = 97\nvalue = [0, 97]"] ;
1022 -> 1028 ;
1029 [label="gini = 0.0\nsamples = 4\nvalue = [4, 0]"] ;
1017 -> 1029 ;
1030 [label="gini = 0.0\nsamples = 1\nvalue = [1, 0]"] ;
1016 -> 1030 ;
1031 [label="X[5] <= 3.5\ngini = 0.469\nsamples = 88\nvalue = [33, 55]"] ;
1015 -> 1031 ;
1032 [label="X[3] <= 316.525\ngini = 0.26\nsamples = 52\nvalue = [8, 44]"] ;
1031 -> 1032 ;
1033 [label="gini = 0.0\nsamples = 7\nvalue = [7, 0]"] ;
1032 -> 1033 ;
1034 [label="X[10] <= 15.0\ngini = 0.043\nsamples = 45\nvalue = [1, 44]"] ;
1032 -> 1034 ;
1035 [label="gini = 0.0\nsamples = 1\nvalue = [1, 0]"] ;
1034 -> 1035 ;
1036 [label="gini = 0.0\nsamples = 44\nvalue = [0, 44]"] ;
1034 -> 1036 ;
1037 [label="X[3] <= 84.215\ngini = 0.424\nsamples = 36\nvalue = [25, 11]"] ;
1031 -> 1037 ;
1038 [label="X[13] <= 27077.5\ngini = 0.153\nsamples = 12\nvalue = [1, 11]"] ;
1037 -> 1038 ;
1039 [label="gini = 0.0\nsamples = 1\nvalue = [1, 0]"] ;
1038 -> 1039 ;
1040 [label="gini = 0.0\nsamples = 11\nvalue = [0, 11]"] ;
1038 -> 1040 ;
1041 [label="gini = 0.0\nsamples = 24\nvalue = [24, 0]"] ;
1037 -> 1041 ;
1042 [label="X[6] <= 63064.0\ngini = 0.45\nsamples = 38\nvalue = [25, 13]"] ;
1010 -> 1042 ;
1043 [label="gini = 0.0\nsamples = 23\nvalue = [23, 0]"] ;
1042 -> 1043 ;
1044 [label="X[3] <= 310.455\ngini = 0.231\nsamples = 15\nvalue = [2, 13]"] ;
1042 -> 1044 ;
1045 [label="gini = 0.0\nsamples = 2\nvalue = [2, 0]"] ;
1044 -> 1045 ;
1046 [label="gini = 0.0\nsamples = 13\nvalue = [0, 13]"] ;
1044 -> 1046 ;
1047 [label="X[13] <= 80853.75\ngini = 0.49\nsamples = 2281\nvalue = [976, 1305]"] ;
821 -> 1047 ;
1048 [label="X[13] <= 24231.0\ngini = 0.5\nsamples = 1156\nvalue = [591, 565]"] ;
1047 -> 1048 ;
1049 [label="X[10] <= 15.5\ngini = 0.476\nsamples = 645\nvalue = [252, 393]"] ;
1048 -> 1049 ;
1050 [label="X[3] <= 413.25\ngini = 0.497\nsamples = 254\nvalue = [137, 117]"] ;
1049 -> 1050 ;
1051 [label="X[6] <= 23064.3\ngini = 0.499\nsamples = 224\nvalue = [107, 117]"] ;
1050 -> 1051 ;
1052 [label="gini = 0.0\nsamples = 21\nvalue = [21, 0]"] ;
1051 -> 1052 ;
1053 [label="X[5] <= 0.5\ngini = 0.488\nsamples = 203\nvalue = [86, 117]"] ;
1051 -> 1053 ;
1054 [label="X[13] <= 12252.5\ngini = 0.302\nsamples = 81\nvalue = [15, 66]"] ;
1053 -> 1054 ;
1055 [label="X[14] <= 0.5\ngini = 0.173\nsamples = 73\nvalue = [7, 66]"] ;
1054 -> 1055 ;
1056 [label="X[0] <= 11750.0\ngini = 0.131\nsamples = 71\nvalue = [5, 66]"] ;
1055 -> 1056 ;
1057 [label="X[8] <= 1.0\ngini = 0.083\nsamples = 69\nvalue = [3, 66]"] ;
1056 -> 1057 ;
1058 [label="X[2] <= 17.025\ngini = 0.057\nsamples = 68\nvalue = [2, 66]"] ;
1057 -> 1058 ;
1059 [label="X[3] <= 210.315\ngini = 0.137\nsamples = 27\nvalue = [2, 25]"] ;
1058 -> 1059 ;
1060 [label="gini = 0.0\nsamples = 25\nvalue = [0, 25]"] ;
1059 -> 1060 ;
1061 [label="gini = 0.0\nsamples = 2\nvalue = [2, 0]"] ;
1059 -> 1061 ;
1062 [label="gini = 0.0\nsamples = 41\nvalue = [0, 41]"] ;
1058 -> 1062 ;
1063 [label="gini = 0.0\nsamples = 1\nvalue = [1, 0]"] ;
1057 -> 1063 ;
1064 [label="gini = 0.0\nsamples = 2\nvalue = [2, 0]"] ;
1056 -> 1064 ;
1065 [label="gini = 0.0\nsamples = 2\nvalue = [2, 0]"] ;
1055 -> 1065 ;
1066 [label="gini = 0.0\nsamples = 8\nvalue = [8, 0]"] ;
1054 -> 1066 ;
1067 [label="X[5] <= 3.5\ngini = 0.487\nsamples = 122\nvalue = [71, 51]"] ;
1053 -> 1067 ;
1068 [label="gini = 0.0\nsamples = 34\nvalue = [34, 0]"] ;
1067 -> 1068 ;
1069 [label="X[13] <= 15949.5\ngini = 0.487\nsamples = 88\nvalue = [37, 51]"] ;
1067 -> 1069 ;
1070 [label="gini = 0.0\nsamples = 23\nvalue = [23, 0]"] ;
1069 -> 1070 ;
1071 [label="X[2] <= 16.77\ngini = 0.338\nsamples = 65\nvalue = [14, 51]"] ;
1069 -> 1071 ;
1072 [label="gini = 0.0\nsamples = 5\nvalue = [5, 0]"] ;
1071 -> 1072 ;
1073 [label="X[10] <= 9.5\ngini = 0.255\nsamples = 60\nvalue = [9, 51]"] ;
1071 -> 1073 ;
1074 [label="gini = 0.0\nsamples = 5\nvalue = [5, 0]"] ;
1073 -> 1074 ;
1075 [label="X[7] <= 5.5\ngini = 0.135\nsamples = 55\nvalue = [4, 51]"] ;
1073 -> 1075 ;
1076 [label="gini = 0.0\nsamples = 1\nvalue = [1, 0]"] ;
1075 -> 1076 ;
1077 [label="X[3] <= 285.045\ngini = 0.105\nsamples = 54\nvalue = [3, 51]"] ;
1075 -> 1077 ;
1078 [label="gini = 0.0\nsamples = 36\nvalue = [0, 36]"] ;
1077 -> 1078 ;
1079 [label="X[13] <= 23236.5\ngini = 0.278\nsamples = 18\nvalue = [3, 15]"] ;
1077 -> 1079 ;
1080 [label="gini = 0.0\nsamples = 3\nvalue = [3, 0]"] ;
1079 -> 1080 ;
1081 [label="gini = 0.0\nsamples = 15\nvalue = [0, 15]"] ;
1079 -> 1081 ;
1082 [label="gini = 0.0\nsamples = 30\nvalue = [30, 0]"] ;
1050 -> 1082 ;
1083 [label="X[2] <= 17.815\ngini = 0.415\nsamples = 391\nvalue = [115, 276]"] ;
1049 -> 1083 ;
1084 [label="X[7] <= 6.5\ngini = 0.381\nsamples = 352\nvalue = [90, 262]"] ;
1083 -> 1084 ;
1085 [label="gini = 0.0\nsamples = 16\nvalue = [16, 0]"] ;
1084 -> 1085 ;
1086 [label="X[2] <= 17.065\ngini = 0.343\nsamples = 336\nvalue = [74, 262]"] ;
1084 -> 1086 ;
1087 [label="X[10] <= 24.5\ngini = 0.441\nsamples = 180\nvalue = [59, 121]"] ;
1086 -> 1087 ;
1088 [label="X[2] <= 16.79\ngini = 0.5\nsamples = 77\nvalue = [39, 38]"] ;
1087 -> 1088 ;
1089 [label="gini = 0.0\nsamples = 30\nvalue = [30, 0]"] ;
1088 -> 1089 ;
1090 [label="X[9] <= 8646.5\ngini = 0.31\nsamples = 47\nvalue = [9, 38]"] ;
1088 -> 1090 ;
1091 [label="gini = 0.0\nsamples = 7\nvalue = [7, 0]"] ;
1090 -> 1091 ;
1092 [label="X[0] <= 13500.0\ngini = 0.095\nsamples = 40\nvalue = [2, 38]"] ;
1090 -> 1092 ;
1093 [label="gini = 0.0\nsamples = 38\nvalue = [0, 38]"] ;
1092 -> 1093 ;
1094 [label="gini = 0.0\nsamples = 2\nvalue = [2, 0]"] ;
1092 -> 1094 ;
1095 [label="X[5] <= 2.5\ngini = 0.313\nsamples = 103\nvalue = [20, 83]"] ;
1087 -> 1095 ;
1096 [label="gini = 0.0\nsamples = 9\nvalue = [9, 0]"] ;
1095 -> 1096 ;
1097 [label="X[3] <= 369.4\ngini = 0.207\nsamples = 94\nvalue = [11, 83]"] ;
1095 -> 1097 ;
1098 [label="X[17] <= 0.5\ngini = 0.107\nsamples = 88\nvalue = [5, 83]"] ;
1097 -> 1098 ;
1099 [label="X[13] <= 2580.0\ngini = 0.067\nsamples = 86\nvalue = [3, 83]"] ;
1098 -> 1099 ;
1100 [label="gini = 0.0\nsamples = 1\nvalue = [1, 0]"] ;
1099 -> 1100 ;
1101 [label="X[9] <= 10975.0\ngini = 0.046\nsamples = 85\nvalue = [2, 83]"] ;
1099 -> 1101 ;
1102 [label="X[6] <= 62500.0\ngini = 0.024\nsamples = 84\nvalue = [1, 83]"] ;
1101 -> 1102 ;
1103 [label="gini = 0.0\nsamples = 83\nvalue = [0, 83]"] ;
1102 -> 1103 ;
1104 [label="gini = 0.0\nsamples = 1\nvalue = [1, 0]"] ;
1102 -> 1104 ;
1105 [label="gini = 0.0\nsamples = 1\nvalue = [1, 0]"] ;
1101 -> 1105 ;
1106 [label="gini = 0.0\nsamples = 2\nvalue = [2, 0]"] ;
1098 -> 1106 ;
1107 [label="gini = 0.0\nsamples = 6\nvalue = [6, 0]"] ;
1097 -> 1107 ;
1108 [label="X[5] <= 9.5\ngini = 0.174\nsamples = 156\nvalue = [15, 141]"] ;
1086 -> 1108 ;
1109 [label="X[1] <= 48.0\ngini = 0.145\nsamples = 153\nvalue = [12, 141]"] ;
1108 -> 1109 ;
1110 [label="X[10] <= 44.5\ngini = 0.094\nsamples = 141\nvalue = [7, 134]"] ;
1109 -> 1110 ;
1111 [label="X[6] <= 18840.0\ngini = 0.082\nsamples = 140\nvalue = [6, 134]"] ;
1110 -> 1111 ;
1112 [label="gini = 0.0\nsamples = 1\nvalue = [1, 0]"] ;
1111 -> 1112 ;
1113 [label="X[9] <= 1926.0\ngini = 0.069\nsamples = 139\nvalue = [5, 134]"] ;
1111 -> 1113 ;
1114 [label="gini = 0.0\nsamples = 1\nvalue = [1, 0]"] ;
1113 -> 1114 ;
1115 [label="X[16] <= 0.5\ngini = 0.056\nsamples = 138\nvalue = [4, 134]"] ;
1113 -> 1115 ;
1116 [label="X[6] <= 49500.0\ngini = 0.032\nsamples = 123\nvalue = [2, 121]"] ;
1115 -> 1116 ;
1117 [label="gini = 0.0\nsamples = 105\nvalue = [0, 105]"] ;
1116 -> 1117 ;
1118 [label="gini = 0.198\nsamples = 18\nvalue = [2, 16]"] ;
1116 -> 1118 ;
1119 [label="X[6] <= 32500.0\ngini = 0.231\nsamples = 15\nvalue = [2, 13]"] ;
1115 -> 1119 ;
1120 [label="gini = 0.0\nsamples = 13\nvalue = [0, 13]"] ;
1119 -> 1120 ;
1121 [label="gini = 0.0\nsamples = 2\nvalue = [2, 0]"] ;
1119 -> 1121 ;
1122 [label="gini = 0.0\nsamples = 1\nvalue = [1, 0]"] ;
1110 -> 1122 ;
1123 [label="X[0] <= 11437.5\ngini = 0.486\nsamples = 12\nvalue = [5, 7]"] ;
1109 -> 1123 ;
1124 [label="gini = 0.0\nsamples = 7\nvalue = [0, 7]"] ;
1123 -> 1124 ;
1125 [label="gini = 0.0\nsamples = 5\nvalue = [5, 0]"] ;
1123 -> 1125 ;
1126 [label="gini = 0.0\nsamples = 3\nvalue = [3, 0]"] ;
1108 -> 1126 ;
1127 [label="X[13] <= 23488.0\ngini = 0.46\nsamples = 39\nvalue = [25, 14]"] ;
1083 -> 1127 ;
1128 [label="gini = 0.0\nsamples = 25\nvalue = [25, 0]"] ;
1127 -> 1128 ;
1129 [label="gini = 0.0\nsamples = 14\nvalue = [0, 14]"] ;
1127 -> 1129 ;
1130 [label="X[2] <= 18.22\ngini = 0.447\nsamples = 511\nvalue = [339, 172]"] ;
1048 -> 1130 ;
1131 [label="X[3] <= 525.81\ngini = 0.39\nsamples = 414\nvalue = [304, 110]"] ;
1130 -> 1131 ;
1132 [label="X[2] <= 17.565\ngini = 0.265\nsamples = 280\nvalue = [236, 44]"] ;
1131 -> 1132 ;
1133 [label="gini = 0.0\nsamples = 166\nvalue = [166, 0]"] ;
1132 -> 1133 ;
1134 [label="X[9] <= 17787.0\ngini = 0.474\nsamples = 114\nvalue = [70, 44]"] ;
1132 -> 1134 ;
1135 [label="X[9] <= 1843.5\ngini = 0.253\nsamples = 74\nvalue = [63, 11]"] ;
1134 -> 1135 ;
1136 [label="X[3] <= 85.885\ngini = 0.153\nsamples = 12\nvalue = [1, 11]"] ;
1135 -> 1136 ;
1137 [label="gini = 0.0\nsamples = 1\nvalue = [1, 0]"] ;
1136 -> 1137 ;
1138 [label="gini = 0.0\nsamples = 11\nvalue = [0, 11]"] ;
1136 -> 1138 ;
1139 [label="gini = 0.0\nsamples = 62\nvalue = [62, 0]"] ;
1135 -> 1139 ;
1140 [label="X[6] <= 52128.0\ngini = 0.289\nsamples = 40\nvalue = [7, 33]"] ;
1134 -> 1140 ;
1141 [label="X[15] <= 0.5\ngini = 0.108\nsamples = 35\nvalue = [2, 33]"] ;
1140 -> 1141 ;
1142 [label="gini = 0.0\nsamples = 2\nvalue = [2, 0]"] ;
1141 -> 1142 ;
1143 [label="gini = 0.0\nsamples = 33\nvalue = [0, 33]"] ;
1141 -> 1143 ;
1144 [label="gini = 0.0\nsamples = 5\nvalue = [5, 0]"] ;
1140 -> 1144 ;
1145 [label="X[13] <= 46390.5\ngini = 0.5\nsamples = 134\nvalue = [68, 66]"] ;
1131 -> 1145 ;
1146 [label="X[10] <= 18.5\ngini = 0.47\nsamples = 106\nvalue = [40, 66]"] ;
1145 -> 1146 ;
1147 [label="gini = 0.0\nsamples = 13\nvalue = [13, 0]"] ;
1146 -> 1147 ;
1148 [label="X[2] <= 15.8\ngini = 0.412\nsamples = 93\nvalue = [27, 66]"] ;
1146 -> 1148 ;
1149 [label="gini = 0.0\nsamples = 7\nvalue = [7, 0]"] ;
1148 -> 1149 ;
1150 [label="X[9] <= 24840.0\ngini = 0.357\nsamples = 86\nvalue = [20, 66]"] ;
1148 -> 1150 ;
1151 [label="X[13] <= 28678.0\ngini = 0.275\nsamples = 79\nvalue = [13, 66]"] ;
1150 -> 1151 ;
1152 [label="gini = 0.0\nsamples = 4\nvalue = [4, 0]"] ;
1151 -> 1152 ;
1153 [label="X[6] <= 41494.5\ngini = 0.211\nsamples = 75\nvalue = [9, 66]"] ;
1151 -> 1153 ;
1154 [label="gini = 0.0\nsamples = 3\nvalue = [3, 0]"] ;
1153 -> 1154 ;
1155 [label="X[3] <= 726.89\ngini = 0.153\nsamples = 72\nvalue = [6, 66]"] ;
1153 -> 1155 ;
1156 [label="X[7] <= 7.5\ngini = 0.108\nsamples = 70\nvalue = [4, 66]"] ;
1155 -> 1156 ;
1157 [label="gini = 0.0\nsamples = 1\nvalue = [1, 0]"] ;
1156 -> 1157 ;
1158 [label="X[20] <= 0.5\ngini = 0.083\nsamples = 69\nvalue = [3, 66]"] ;
1156 -> 1158 ;
1159 [label="gini = 0.057\nsamples = 68\nvalue = [2, 66]"] ;
1158 -> 1159 ;
1160 [label="gini = 0.0\nsamples = 1\nvalue = [1, 0]"] ;
1158 -> 1160 ;
1161 [label="gini = 0.0\nsamples = 2\nvalue = [2, 0]"] ;
1155 -> 1161 ;
1162 [label="gini = 0.0\nsamples = 7\nvalue = [7, 0]"] ;
1150 -> 1162 ;
1163 [label="gini = 0.0\nsamples = 28\nvalue = [28, 0]"] ;
1145 -> 1163 ;
1164 [label="X[6] <= 47500.0\ngini = 0.461\nsamples = 97\nvalue = [35, 62]"] ;
1130 -> 1164 ;
1165 [label="X[10] <= 22.0\ngini = 0.301\nsamples = 76\nvalue = [14, 62]"] ;
1164 -> 1165 ;
1166 [label="X[0] <= 8550.0\ngini = 0.161\nsamples = 68\nvalue = [6, 62]"] ;
1165 -> 1166 ;
1167 [label="gini = 0.0\nsamples = 2\nvalue = [2, 0]"] ;
1166 -> 1167 ;
1168 [label="X[13] <= 29818.0\ngini = 0.114\nsamples = 66\nvalue = [4, 62]"] ;
1166 -> 1168 ;
1169 [label="gini = 0.0\nsamples = 2\nvalue = [2, 0]"] ;
1168 -> 1169 ;
1170 [label="X[17] <= 0.5\ngini = 0.061\nsamples = 64\nvalue = [2, 62]"] ;
1168 -> 1170 ;
1171 [label="X[5] <= 7.5\ngini = 0.031\nsamples = 63\nvalue = [1, 62]"] ;
1170 -> 1171 ;
1172 [label="gini = 0.0\nsamples = 52\nvalue = [0, 52]"] ;
1171 -> 1172 ;
1173 [label="X[21] <= 0.5\ngini = 0.165\nsamples = 11\nvalue = [1, 10]"] ;
1171 -> 1173 ;
1174 [label="gini = 0.0\nsamples = 1\nvalue = [1, 0]"] ;
1173 -> 1174 ;
1175 [label="gini = 0.0\nsamples = 10\nvalue = [0, 10]"] ;
1173 -> 1175 ;
1176 [label="gini = 0.0\nsamples = 1\nvalue = [1, 0]"] ;
1170 -> 1176 ;
1177 [label="gini = 0.0\nsamples = 8\nvalue = [8, 0]"] ;
1165 -> 1177 ;
1178 [label="gini = 0.0\nsamples = 21\nvalue = [21, 0]"] ;
1164 -> 1178 ;
1179 [label="X[13] <= 81206.75\ngini = 0.45\nsamples = 1125\nvalue = [385, 740]"] ;
1047 -> 1179 ;
1180 [label="X[10] <= 31.5\ngini = 0.22\nsamples = 462\nvalue = [58, 404]"] ;
1179 -> 1180 ;
1181 [label="X[7] <= 14.5\ngini = 0.196\nsamples = 454\nvalue = [50, 404]"] ;
1180 -> 1181 ;
1182 [label="X[2] <= 18.275\ngini = 0.184\nsamples = 450\nvalue = [46, 404]"] ;
1181 -> 1182 ;
1183 [label="X[2] <= 14.92\ngini = 0.177\nsamples = 448\nvalue = [44, 404]"] ;
1182 -> 1183 ;
1184 [label="X[7] <= 10.5\ngini = 0.38\nsamples = 47\nvalue = [12, 35]"] ;
1183 -> 1184 ;
1185 [label="gini = 0.0\nsamples = 10\nvalue = [10, 0]"] ;
1184 -> 1185 ;
1186 [label="X[2] <= 14.79\ngini = 0.102\nsamples = 37\nvalue = [2, 35]"] ;
1184 -> 1186 ;
1187 [label="X[9] <= 23160.0\ngini = 0.054\nsamples = 36\nvalue = [1, 35]"] ;
1186 -> 1187 ;
1188 [label="gini = 0.0\nsamples = 35\nvalue = [0, 35]"] ;
1187 -> 1188 ;
1189 [label="gini = 0.0\nsamples = 1\nvalue = [1, 0]"] ;
1187 -> 1189 ;
1190 [label="gini = 0.0\nsamples = 1\nvalue = [1, 0]"] ;
1186 -> 1190 ;
1191 [label="X[10] <= 6.5\ngini = 0.147\nsamples = 401\nvalue = [32, 369]"] ;
1183 -> 1191 ;
1192 [label="X[3] <= 105.89\ngini = 0.408\nsamples = 21\nvalue = [6, 15]"] ;
1191 -> 1192 ;
1193 [label="gini = 0.0\nsamples = 15\nvalue = [0, 15]"] ;
1192 -> 1193 ;
1194 [label="gini = 0.0\nsamples = 6\nvalue = [6, 0]"] ;
1192 -> 1194 ;
1195 [label="X[6] <= 65500.0\ngini = 0.127\nsamples = 380\nvalue = [26, 354]"] ;
1191 -> 1195 ;
1196 [label="X[6] <= 49500.0\ngini = 0.123\nsamples = 379\nvalue = [25, 354]"] ;
1195 -> 1196 ;
1197 [label="X[9] <= 2614.0\ngini = 0.091\nsamples = 293\nvalue = [14, 279]"] ;
1196 -> 1197 ;
1198 [label="X[9] <= 1113.0\ngini = 0.021\nsamples = 95\nvalue = [1, 94]"] ;
1197 -> 1198 ;
1199 [label="X[2] <= 17.285\ngini = 0.067\nsamples = 29\nvalue = [1, 28]"] ;
1198 -> 1199 ;
1200 [label="gini = 0.0\nsamples = 1\nvalue = [1, 0]"] ;
1199 -> 1200 ;
1201 [label="gini = 0.0\nsamples = 28\nvalue = [0, 28]"] ;
1199 -> 1201 ;
1202 [label="gini = 0.0\nsamples = 66\nvalue = [0, 66]"] ;
1198 -> 1202 ;
1203 [label="X[9] <= 3853.5\ngini = 0.123\nsamples = 198\nvalue = [13, 185]"] ;
1197 -> 1203 ;
1204 [label="gini = 0.0\nsamples = 3\nvalue = [3, 0]"] ;
1203 -> 1204 ;
1205 [label="X[3] <= 487.97\ngini = 0.097\nsamples = 195\nvalue = [10, 185]"] ;
1203 -> 1205 ;
1206 [label="X[2] <= 18.12\ngini = 0.088\nsamples = 194\nvalue = [9, 185]"] ;
1205 -> 1206 ;
1207 [label="gini = 0.079\nsamples = 193\nvalue = [8, 185]"] ;
1206 -> 1207 ;
1208 [label="gini = 0.0\nsamples = 1\nvalue = [1, 0]"] ;
1206 -> 1208 ;
1209 [label="gini = 0.0\nsamples = 1\nvalue = [1, 0]"] ;
1205 -> 1209 ;
1210 [label="X[9] <= 7892.5\ngini = 0.223\nsamples = 86\nvalue = [11, 75]"] ;
1196 -> 1210 ;
1211 [label="gini = 0.0\nsamples = 8\nvalue = [8, 0]"] ;
1210 -> 1211 ;
1212 [label="X[6] <= 55998.0\ngini = 0.074\nsamples = 78\nvalue = [3, 75]"] ;
1210 -> 1212 ;
1213 [label="gini = 0.0\nsamples = 2\nvalue = [2, 0]"] ;
1212 -> 1213 ;
1214 [label="X[15] <= 0.5\ngini = 0.026\nsamples = 76\nvalue = [1, 75]"] ;
1212 -> 1214 ;
1215 [label="gini = 0.0\nsamples = 75\nvalue = [0, 75]"] ;
1214 -> 1215 ;
1216 [label="gini = 0.0\nsamples = 1\nvalue = [1, 0]"] ;
1214 -> 1216 ;
1217 [label="gini = 0.0\nsamples = 1\nvalue = [1, 0]"] ;
1195 -> 1217 ;
1218 [label="gini = 0.0\nsamples = 2\nvalue = [2, 0]"] ;
1182 -> 1218 ;
1219 [label="gini = 0.0\nsamples = 4\nvalue = [4, 0]"] ;
1181 -> 1219 ;
1220 [label="gini = 0.0\nsamples = 8\nvalue = [8, 0]"] ;
1180 -> 1220 ;
1221 [label="X[9] <= 6486.5\ngini = 0.5\nsamples = 663\nvalue = [327, 336]"] ;
1179 -> 1221 ;
1222 [label="gini = 0.0\nsamples = 74\nvalue = [74, 0]"] ;
1221 -> 1222 ;
1223 [label="X[10] <= 19.5\ngini = 0.49\nsamples = 589\nvalue = [253, 336]"] ;
1221 -> 1223 ;
1224 [label="X[0] <= 9725.0\ngini = 0.441\nsamples = 116\nvalue = [78, 38]"] ;
1223 -> 1224 ;
1225 [label="X[13] <= 200336.0\ngini = 0.444\nsamples = 45\nvalue = [15, 30]"] ;
1224 -> 1225 ;
1226 [label="gini = 0.0\nsamples = 12\nvalue = [12, 0]"] ;
1225 -> 1226 ;
1227 [label="X[5] <= 4.5\ngini = 0.165\nsamples = 33\nvalue = [3, 30]"] ;
1225 -> 1227 ;
1228 [label="gini = 0.0\nsamples = 30\nvalue = [0, 30]"] ;
1227 -> 1228 ;
1229 [label="gini = 0.0\nsamples = 3\nvalue = [3, 0]"] ;
1227 -> 1229 ;
1230 [label="X[13] <= 123196.5\ngini = 0.2\nsamples = 71\nvalue = [63, 8]"] ;
1224 -> 1230 ;
1231 [label="X[7] <= 5.5\ngini = 0.494\nsamples = 18\nvalue = [10, 8]"] ;
1230 -> 1231 ;
1232 [label="gini = 0.0\nsamples = 8\nvalue = [0, 8]"] ;
1231 -> 1232 ;
1233 [label="gini = 0.0\nsamples = 10\nvalue = [10, 0]"] ;
1231 -> 1233 ;
1234 [label="gini = 0.0\nsamples = 53\nvalue = [53, 0]"] ;
1230 -> 1234 ;
1235 [label="X[13] <= 135470.0\ngini = 0.466\nsamples = 473\nvalue = [175, 298]"] ;
1223 -> 1235 ;
1236 [label="X[6] <= 41257.0\ngini = 0.447\nsamples = 86\nvalue = [57, 29]"] ;
1235 -> 1236 ;
1237 [label="X[6] <= 39850.0\ngini = 0.439\nsamples = 43\nvalue = [14, 29]"] ;
1236 -> 1237 ;
1238 [label="gini = 0.0\nsamples = 13\nvalue = [13, 0]"] ;
